636086 300
， -0.225854 0.107560 0.197237 -0.163468 0.090813 0.040628 0.176729 -0.011261 -0.053033 0.037572 -0.155545 0.053847 0.131007 0.250081 -0.071398 -0.089812 -0.034247 0.078562 0.023870 0.159746 0.100427 0.021786 0.266321 0.004339 0.105988 -0.002758 0.119828 0.004190 -0.154152 0.087963 0.179135 0.041696 -0.150765 0.112602 -0.003246 -0.115960 0.042190 0.108845 0.138592 -0.270801 0.276069 -0.377507 -0.133841 0.225290 -0.084972 -0.046473 -0.163377 -0.129677 0.178721 -0.008124 -0.037467 0.291655 0.144279 -0.118583 0.046584 0.021907 0.126214 0.054273 0.048182 0.079335 -0.126211 0.045360 -0.099212 -0.016365 -0.009512 -0.038277 -0.152457 0.013738 -0.210855 -0.151658 0.068768 0.310373 0.086278 0.065519 0.089834 0.264020 0.206357 -0.046300 0.111625 -0.112923 0.025023 0.266332 0.238958 -0.112658 0.037161 -0.228547 0.048586 0.243026 -0.143488 0.045040 0.028236 0.096553 0.011036 0.119268 0.068397 -0.000245 -0.011066 -0.096202 -0.020504 -0.104224 -0.152824 -0.126277 0.003383 0.146738 0.034192 -0.063062 -0.100550 0.081958 0.297142 -0.095431 0.047876 0.045076 0.061213 -0.103860 -0.046096 -0.108332 0.083888 -0.170114 0.091852 -0.111302 0.036355 0.048322 0.048027 -0.133125 -0.173485 -0.062455 0.133545 0.264515 -0.199027 -0.134663 -0.176003 -0.073278 -0.071808 -0.067675 0.065894 -0.061778 -0.207889 -0.035713 0.129135 0.160631 0.064196 0.036111 -0.037556 -0.123741 0.070222 -0.011605 0.095488 -0.026130 0.176827 0.135286 -0.091638 -0.196278 0.135840 -0.067259 -0.066008 -0.207676 -0.178852 -0.009413 -0.113950 0.196629 -0.114693 -0.026324 -0.141586 0.197364 -0.078522 -0.162726 0.052150 0.003707 0.034934 -0.067691 -0.014802 0.025208 -0.012278 0.014441 0.015678 0.044566 0.007233 -0.030680 -0.075503 0.143719 0.075201 0.141424 -0.038741 0.120257 0.066381 0.028938 -0.026662 0.052459 0.103320 -0.057982 0.058221 0.058726 -0.196115 -0.118826 -0.017446 0.047007 0.301567 0.037915 -0.147273 0.340786 -0.015451 -0.004354 0.009008 -0.036533 0.171037 0.224140 -0.119820 0.302488 -0.036199 -0.200074 0.108383 0.048416 0.059023 0.092124 0.024632 0.049616 -0.205193 0.018068 -0.330599 0.047790 -0.031321 -0.066260 -0.077764 0.274229 -0.157499 -0.090307 -0.057102 0.099106 0.094118 -0.152254 -0.012646 0.065620 0.032115 0.122921 0.051477 0.019677 0.321413 0.100348 -0.195362 0.033550 0.171877 -0.054965 -0.090468 -0.046022 -0.023165 0.142064 0.160361 -0.100200 0.114204 -0.251116 -0.020862 0.259914 0.010826 -0.333081 -0.029773 -0.106668 -0.066178 -0.055028 0.032080 0.081552 0.237320 0.034470 0.116792 -0.054930 0.035778 -0.171559 -0.077482 0.091026 -0.050017 0.080905 -0.356599 -0.044822 -0.058992 0.191774 0.001098 0.036497 -0.047119 -0.051166 0.028191 0.230730 -0.093177 -0.086363 -0.153171 -0.000628 0.028436 -0.117305 -0.154677 -0.030172 -0.073724 0.022715 -0.036977 0.059616 0.153312 -0.103805 0.231885 0.247361 -0.134653 0.142064 0.144121 0.005673
的 -0.242538 0.100439 0.129818 -0.104647 -0.028103 0.058042 0.190883 0.153426 0.034308 0.071330 -0.000116 0.113657 0.097657 0.030841 0.060856 0.056382 -0.195434 0.031622 0.003772 0.059192 -0.021331 -0.109444 0.192544 0.012395 0.107907 0.179732 0.216159 -0.004080 -0.127886 0.022992 0.169664 0.191425 -0.022217 -0.095708 0.075299 -0.169385 0.042564 0.002497 0.033388 -0.279786 0.135520 0.028730 -0.006901 0.183539 0.175054 0.166405 0.106541 -0.030475 0.122642 -0.196793 0.247228 0.058643 0.177309 -0.197690 -0.088260 0.094268 0.117994 0.031037 0.069194 0.000642 -0.066777 0.101824 -0.002390 0.094974 0.121026 0.153325 -0.304356 0.173549 -0.093552 0.029033 0.101660 0.149433 0.072934 0.143490 0.083457 0.241503 -0.070801 -0.088046 0.003713 -0.280668 -0.001448 0.003456 0.101584 0.131760 -0.223845 -0.309329 0.016964 0.347164 0.132431 -0.111628 -0.138338 -0.064733 0.007556 0.122302 0.184578 -0.078595 -0.140727 -0.192051 -0.086686 -0.038096 -0.097754 -0.052457 -0.018865 0.045217 0.132015 0.010384 -0.070730 -0.116558 0.109532 -0.159887 -0.024422 0.011281 -0.006494 0.021118 -0.021956 0.045676 0.285816 -0.096120 0.045639 0.046192 -0.194560 0.143332 0.013284 0.181637 -0.135146 -0.213470 -0.122927 0.139591 -0.174840 -0.230727 -0.336673 0.028399 0.133554 -0.022328 0.263509 -0.135144 -0.085525 -0.068479 0.147214 0.148020 -0.165846 0.096487 0.216477 -0.130104 0.220343 0.022198 0.081715 0.190736 -0.112020 0.124746 -0.042398 -0.100392 0.217173 -0.025453 -0.261025 -0.122996 -0.065484 0.169312 -0.274064 0.073796 -0.042404 0.003309 -0.026870 0.224915 -0.086456 -0.116525 0.077721 -0.003964 0.094634 -0.345002 -0.055975 0.189918 -0.206350 -0.058314 0.003844 -0.008447 -0.021032 0.057915 0.084640 0.098421 0.103423 0.139302 0.069879 0.235352 -0.012435 -0.214576 0.140327 -0.096340 -0.000419 0.145002 -0.118673 -0.067662 -0.314651 0.103676 0.213736 0.119828 -0.093621 0.300272 -0.054337 0.236886 -0.066297 0.070531 0.055797 -0.052518 -0.042077 0.220657 -0.085996 0.439905 0.213758 -0.013311 0.172127 -0.072370 0.025413 0.129522 0.082697 0.258775 -0.146191 -0.015176 -0.039916 0.097016 0.134828 -0.051018 0.105613 0.200699 -0.085717 -0.149180 -0.140295 -0.099351 -0.072185 0.008729 0.114468 -0.014246 0.211366 0.059199 0.042156 0.000897 0.234377 0.119545 -0.052635 -0.034904 -0.053223 -0.105491 -0.097634 -0.044138 0.039147 0.025329 0.121565 0.042493 0.119284 0.007208 0.110501 0.105863 0.014750 -0.279106 -0.178406 0.028334 -0.144416 0.213126 0.025383 0.247148 0.346476 -0.046433 0.199948 0.019231 0.053996 -0.044669 -0.117902 -0.048377 -0.114109 0.047294 -0.266003 -0.155737 0.022962 -0.032529 -0.112454 0.065954 0.005879 0.160480 -0.098461 0.098248 -0.110154 -0.067323 -0.102438 -0.100263 -0.001491 -0.205655 -0.219179 0.047583 -0.187761 0.135312 0.035478 0.002708 0.039958 -0.083279 0.195324 0.142303 -0.079450 0.133499 0.202978 -0.277668
。 -0.283826 -0.052346 0.080995 -0.139234 0.153747 0.052080 0.152875 0.159906 -0.100812 0.051320 -0.103536 -0.089473 0.056333 0.140998 -0.062160 -0.124558 -0.066892 -0.009883 0.091323 0.173555 -0.096824 0.053216 0.320953 -0.072564 0.084597 -0.016583 0.137165 0.005142 -0.181158 0.144163 0.155581 0.165243 -0.017603 -0.001569 -0.008859 -0.074905 0.062937 -0.126123 0.157542 -0.174461 0.277550 -0.226569 0.105378 0.384084 0.012730 0.064785 0.061948 0.034733 0.245869 -0.052040 -0.061160 0.229989 0.137800 0.058283 0.062240 0.165518 0.029029 0.008543 0.159878 0.128581 -0.132286 -0.042042 -0.064327 -0.029669 -0.012382 0.171713 -0.170834 -0.030781 -0.156063 -0.166197 0.083500 0.245971 0.158185 0.124231 0.016966 0.098247 0.108287 -0.033103 0.110902 0.085093 -0.012798 0.059657 0.207193 0.008308 -0.073832 -0.165532 0.103812 0.138122 -0.223544 -0.129617 0.024598 0.118812 0.023367 0.241243 0.167620 0.045504 0.004117 -0.133555 -0.034388 -0.069076 -0.219639 -0.210766 0.192454 0.116632 -0.013204 -0.170307 -0.193683 0.075764 0.209414 -0.036529 -0.005920 0.164980 0.069390 -0.044813 0.209077 -0.192445 0.179965 -0.183163 0.145443 -0.115985 0.078686 0.064413 0.106028 0.040743 0.007855 -0.077971 0.019152 0.060632 -0.025784 -0.157173 -0.069382 0.041079 0.079359 -0.061446 0.156869 -0.041106 -0.239221 -0.040970 -0.000015 0.099060 -0.247002 -0.020837 0.050309 0.002642 0.118486 -0.029898 0.186345 0.085188 0.178551 0.096495 -0.075727 -0.120875 0.101078 0.074043 -0.114990 -0.139079 -0.132218 0.178934 -0.198598 0.116678 0.085819 -0.047442 -0.343870 -0.023334 -0.127745 -0.187099 0.153834 -0.065911 0.212171 -0.226741 0.007796 0.170214 -0.123449 0.030632 -0.134519 0.026184 0.060357 0.023709 -0.105402 0.059923 -0.054748 0.163454 -0.021259 0.143792 0.039344 -0.113686 0.095763 0.047529 0.053945 -0.024458 -0.035755 -0.034898 -0.117274 -0.140923 -0.051384 0.073058 0.142643 0.218760 -0.172208 0.232220 0.078158 0.015812 0.180485 -0.130071 0.163176 0.193347 0.036909 0.212062 -0.014643 -0.164350 0.269914 -0.020742 0.139275 0.116478 -0.010222 0.046338 -0.163462 0.078293 -0.194750 0.146771 -0.066055 0.023407 -0.031146 0.323978 -0.104894 -0.062218 -0.067920 -0.058051 -0.007136 -0.065643 0.057267 0.005363 0.113890 0.194012 0.130181 0.081436 0.086198 0.065030 -0.172616 0.074657 0.038350 -0.150484 -0.019897 -0.079627 0.163732 0.090669 0.121193 -0.269247 0.119581 -0.304608 0.071850 0.088829 0.151985 -0.040556 -0.166373 -0.112855 -0.022780 0.054751 -0.004542 -0.012059 0.113281 -0.085975 0.213007 0.050355 0.042661 -0.188214 -0.074528 0.242681 -0.223175 0.019245 -0.291517 -0.086909 0.100913 0.090165 0.080523 0.154252 0.056052 0.049938 0.099428 0.266409 -0.078517 -0.211588 -0.247789 -0.061397 0.011922 -0.010878 -0.138854 -0.032372 -0.191472 0.056607 0.051876 0.045863 0.213666 -0.076109 0.197351 0.265458 -0.068780 0.057721 0.142923 -0.091333
、 -0.139363 -0.125236 -0.013278 -0.181661 -0.034986 0.119116 0.267856 0.099250 -0.034482 0.171634 -0.245950 -0.009038 0.262238 0.070154 0.415633 -0.038432 0.070215 0.107823 -0.085035 0.062081 -0.001343 -0.021404 0.225816 -0.072659 -0.189399 0.053036 -0.105795 0.020521 0.129235 -0.084934 0.033116 0.009431 -0.363982 -0.000598 -0.046151 -0.011243 -0.125018 0.193179 0.175978 -0.220248 0.019014 -0.256479 -0.098403 0.162474 0.061588 -0.099769 0.098795 -0.178115 0.148304 -0.016477 0.164924 -0.150911 0.257976 -0.260597 -0.085149 -0.264105 -0.108796 -0.121670 0.028433 0.160053 0.000347 0.138840 0.000072 -0.099522 0.317347 -0.020639 0.019949 0.217891 -0.314646 -0.084788 -0.025907 0.240731 0.326894 0.052649 -0.289223 0.178530 0.227922 -0.278353 0.125414 0.069146 -0.033055 0.066847 0.108767 0.204431 -0.046168 -0.236032 0.187168 0.147785 -0.134953 -0.253016 0.275787 0.074883 -0.120841 0.074723 0.011237 0.163248 0.048633 0.122506 0.083516 -0.080751 -0.125194 0.033055 0.080535 0.102576 0.007312 0.050384 0.014512 0.083849 -0.021015 -0.380419 0.070486 0.181353 -0.113941 0.200429 0.317561 -0.047001 -0.004704 -0.392995 0.080034 0.044392 0.005205 -0.165483 -0.120753 0.387853 -0.042556 -0.123989 -0.047653 0.318699 0.085148 -0.048460 -0.061587 0.232402 -0.034922 -0.042231 0.303293 -0.157485 -0.130420 0.164697 0.050450 0.420010 -0.057841 0.065453 0.157816 -0.177125 0.183258 0.155108 -0.116383 0.098141 0.061797 0.069544 0.024423 -0.035892 -0.045106 0.014053 -0.123324 0.180292 -0.144493 -0.102358 0.019114 -0.005306 -0.053015 -0.022337 -0.408980 -0.005150 -0.290597 -0.104136 0.089532 -0.117259 0.176544 -0.236276 -0.138333 -0.055635 -0.204852 -0.088874 -0.023919 0.111990 0.142244 0.054527 -0.030749 0.203451 -0.117756 0.049910 -0.076879 0.091398 0.169077 -0.179492 -0.150695 -0.180889 0.062409 -0.112556 -0.005070 -0.057433 -0.251399 -0.038494 0.027777 0.011926 0.148410 0.295325 -0.006979 0.295407 -0.129138 0.067188 -0.016359 0.193383 0.187576 0.221739 0.031694 0.195117 -0.008785 -0.217873 0.025776 0.090037 0.116348 -0.100976 0.246379 0.063402 -0.132904 -0.279106 -0.069539 0.186261 0.030882 0.009154 -0.025798 0.280346 -0.104569 -0.113383 0.099690 -0.011483 0.171559 -0.306794 -0.016184 -0.002812 0.120527 0.031391 0.077956 0.353869 -0.028167 -0.091986 -0.031774 -0.063088 -0.194385 -0.091641 -0.257606 -0.136825 0.008524 0.079927 0.007355 0.108205 0.200020 0.030219 -0.110731 0.476231 0.297152 -0.023668 -0.024184 -0.039926 -0.260450 0.351138 0.308033 0.203513 0.045481 0.000072 0.208434 0.375451 0.126939 0.254760 0.099222 0.161415 -0.102060 0.046963 -0.077580 0.136998 -0.197379 0.069379 0.098379 -0.043828 0.166906 0.088012 0.083366 -0.009226 -0.030152 -0.112978 -0.295022 -0.352654 0.258514 0.257768 -0.055885 0.166867 -0.088637 -0.046029 0.263465 0.041032 0.274203 0.000604 0.140871 0.151456 0.058805 0.008681 0.216252 -0.292360
, 0.155485 0.171731 0.233276 -0.294990 -0.083069 0.221517 0.210754 0.058458 0.034378 -0.001103 0.210529 -0.103670 0.282374 0.287384 0.061620 -0.233676 0.274737 0.222117 -0.091445 -0.063277 0.120895 0.301543 0.001285 0.165534 0.104752 0.447471 0.096110 0.101179 -0.138798 0.155692 0.130367 0.378957 0.061487 -0.230584 -0.072448 -0.139328 -0.172987 -0.184515 0.044568 -0.348382 -0.015366 0.147969 0.032349 -0.179244 -0.021538 -0.171668 -0.019609 -0.153311 -0.007933 -0.183268 0.009911 -0.093574 0.121579 -0.382536 0.211177 0.014208 0.002762 0.162969 0.022863 -0.184144 0.188973 0.163497 -0.101445 0.090360 0.193108 -0.102873 -0.029058 0.250924 -0.350060 0.019810 0.224641 0.369881 0.143744 -0.018118 -0.287177 0.577310 -0.082308 0.031789 0.032209 -0.137212 0.145478 0.102848 0.002377 -0.050778 -0.326562 -0.098753 0.072720 0.126202 -0.090258 -0.102740 -0.007281 -0.229315 0.058501 0.118867 -0.086560 0.009856 -0.129670 -0.238838 -0.192824 0.010974 -0.319744 -0.007772 0.085436 0.152649 0.021311 -0.151890 -0.112464 -0.005704 0.084082 -0.301020 0.087169 0.153852 0.021144 0.200173 0.375594 -0.160120 0.026573 -0.277428 0.184705 -0.287448 0.141797 -0.054684 -0.131504 0.097048 0.066209 -0.027201 -0.044130 0.061228 -0.120101 0.074401 -0.226186 -0.049724 0.160247 0.157016 0.055008 -0.596235 0.052956 0.104846 0.082809 0.187239 -0.056707 0.231521 0.159554 -0.199927 0.221538 0.173164 0.133920 0.040235 0.031684 -0.113080 -0.030650 0.092145 -0.008176 0.053527 -0.243069 -0.227426 -0.272182 -0.127665 -0.080504 0.215564 -0.067553 0.220690 0.038869 0.148955 0.045364 -0.040158 -0.018777 0.145430 0.286319 -0.161999 -0.082515 -0.338735 -0.153479 -0.038476 0.129405 -0.012663 -0.087838 0.068208 -0.238941 0.116958 0.210327 0.137340 -0.062394 0.004810 0.072866 -0.091585 -0.190408 0.144995 -0.198114 -0.046550 -0.031315 0.159202 -0.050829 0.042423 0.096476 -0.085848 0.281200 0.011483 0.116097 0.120468 -0.247915 0.276051 0.372800 0.135477 -0.037347 0.190043 0.038579 0.283325 0.003435 0.293334 0.071324 0.168987 -0.021693 0.403638 0.002996 0.002386 -0.374140 0.096605 0.003385 0.087928 -0.071901 -0.123875 0.305204 -0.098239 -0.110479 -0.007437 -0.186157 0.034237 0.030594 -0.161770 -0.054541 -0.162155 0.064088 -0.129517 -0.026312 -0.180809 0.013982 -0.015661 -0.025529 -0.192465 0.076488 0.231995 -0.506028 -0.012168 -0.074404 0.211573 0.318783 -0.019872 0.106646 0.034163 0.361122 0.163099 0.244860 -0.405081 0.200374 -0.115330 0.002608 0.306265 0.385430 -0.035538 0.310289 0.016435 -0.090267 0.116913 -0.218821 0.185645 0.113474 -0.035550 0.082013 0.097351 -0.163677 0.014249 -0.253045 0.253410 0.059680 -0.253572 0.216300 0.317082 0.132375 -0.115617 -0.097134 -0.059300 -0.140438 -0.239878 0.017095 -0.360330 -0.083991 0.157072 0.159346 -0.156875 0.193975 0.061061 0.296603 -0.109877 0.105942 0.029385 -0.124144 -0.056410 -0.020626 0.128185
-------------------------------------------------------------------------------- -0.081808 0.011197 0.470988 0.438233 -0.288076 0.578647 -0.047580 0.418143 -0.123446 0.023354 -0.557598 0.343046 0.669804 0.069432 0.486666 -0.061227 0.176661 -0.324851 0.321877 0.002823 -0.417321 0.530550 -0.279122 -0.342611 -0.245546 -0.281788 0.021601 -0.369445 0.238699 0.416428 -0.210683 -0.156235 -0.702780 -0.011109 0.073058 -0.158398 -0.594987 -0.026393 -0.119783 -0.220344 -0.578124 -0.075909 0.875148 -0.278716 -0.408402 -0.328979 0.537977 -0.085682 -0.120832 0.116175 0.499134 -0.280603 -0.023640 -0.200434 0.238223 0.586553 -0.458162 -0.348585 0.108122 -0.481462 0.248352 0.414742 -0.362671 -0.351773 0.499133 0.563932 0.078360 -0.042915 -0.459662 0.219488 0.427061 0.545830 -0.234577 0.014182 -0.623854 0.230626 0.129698 0.401324 0.397410 -0.124129 0.325558 -0.065353 -0.040074 -0.142611 0.095583 -0.158006 -0.011623 -0.096293 -0.230279 0.250192 0.211952 -0.805774 -0.303635 0.410310 -0.044746 0.489843 -0.503124 -0.341002 0.031899 -0.366179 -0.126338 -0.776751 0.542877 -0.106891 0.710576 0.182053 0.283371 0.010068 -0.185436 0.119326 0.083029 -0.008655 0.214460 -0.022238 0.384907 -0.598472 0.438137 0.284373 0.364604 0.658751 -0.267533 0.024768 -0.247839 -0.012365 -0.026162 -0.270805 -0.186152 0.071588 -0.275535 -0.387141 0.532662 0.265081 0.227891 0.069779 0.064392 -0.582515 -0.293753 -0.011087 -0.054675 0.274333 -0.080880 0.261650 0.110587 -0.359807 0.207321 0.163956 0.050644 0.312796 -0.563834 -0.388337 0.049065 0.214901 -0.033473 -0.524344 -0.273418 0.097694 -0.336554 0.014448 -0.400783 -0.029022 -0.077902 0.002293 -0.094634 0.180199 -0.662994 0.311572 0.113124 0.315112 0.266046 -0.450747 -0.330627 0.330479 0.325043 0.284816 -0.219188 -0.193977 0.105275 -0.118789 -0.466269 0.957221 0.280724 0.187720 0.099516 0.568911 0.410801 0.233751 0.044376 0.874755 0.060291 0.427795 -0.343887 -0.822096 -0.525537 -0.065867 -0.173824 0.083580 0.087951 0.159656 0.299316 0.319816 0.141263 -0.043834 -0.202557 0.022806 0.021714 0.201171 -0.584123 -0.083119 -0.483915 0.134505 -0.389650 0.227109 0.724367 -0.233309 0.708262 0.003407 -0.007000 0.354366 0.384687 0.028369 0.183504 -0.014518 0.362791 -0.006166 -0.273719 -0.002949 0.001197 0.012032 0.235039 0.086782 -0.870837 0.237612 -0.020363 0.102594 0.714257 0.024128 -0.103046 -0.410866 0.112769 -0.712995 0.689990 0.048467 -0.687292 -0.357083 0.742121 -0.276262 0.344214 0.054111 0.044579 0.215590 0.147847 0.344129 0.499594 0.165009 0.441664 -0.457181 0.383294 0.688124 0.709565 -0.294449 -0.049198 0.264081 -0.173337 0.142610 -0.392558 -0.350079 -0.029248 0.183515 -0.137989 -0.133688 -0.227488 -0.151267 -0.369242 0.164343 -0.313256 -0.217761 -0.272371 0.261822 -0.200175 -0.391339 -0.182187 -0.276825 -0.285815 -0.369283 0.139362 -0.357643 -0.034122 0.753874 -0.212182 0.167095 0.142691 0.230527 0.812356 0.244320 -0.277047 0.176925 0.247195 0.208241 0.235117 -0.106507
： 0.067833 0.117388 0.208596 -0.037041 0.145708 0.254909 0.028114 0.219769 -0.191926 -0.115439 -0.109639 -0.080188 0.067659 0.227552 0.209663 -0.278945 0.235166 0.063961 0.072550 -0.195638 0.187757 0.081962 0.204783 -0.155927 0.203204 0.122794 0.426339 0.027452 0.012619 0.095090 0.247977 0.045553 -0.082723 -0.421910 -0.104552 -0.083988 0.159803 -0.105910 0.145323 -0.111622 -0.123509 0.037851 0.392107 -0.218692 0.072770 0.072446 -0.006714 -0.085173 0.086495 0.078996 -0.122059 0.179163 0.224347 -0.315017 0.133426 0.173498 -0.050998 0.068266 0.284882 -0.076780 0.123203 -0.036823 -0.112423 -0.030526 -0.126991 0.164862 0.005357 -0.151439 -0.331181 -0.171391 0.141636 0.049459 0.094498 0.101109 -0.323824 0.472880 -0.084351 -0.110084 -0.017467 0.161307 0.161656 -0.122513 0.202383 -0.006175 -0.286381 -0.221524 0.150225 0.488134 -0.144276 -0.399490 -0.112484 -0.259351 -0.199868 0.097757 -0.011259 0.145754 0.048445 -0.015710 -0.053194 -0.179172 -0.150207 -0.168523 0.128216 0.080043 0.157937 0.023064 -0.140962 0.160247 0.075775 0.203948 0.292576 0.259655 0.102204 0.257660 0.472656 0.179401 0.145233 -0.352691 0.298274 -0.082937 0.153063 0.133713 0.043158 0.198717 -0.014616 -0.057240 -0.034482 0.186997 -0.061599 -0.000532 0.099809 -0.077308 0.096953 0.162691 0.109020 -0.335807 -0.054101 0.158323 0.107932 0.211337 0.024737 0.044913 0.134996 -0.482132 0.272766 -0.059728 0.107222 -0.153630 0.201608 -0.022608 -0.085573 -0.219615 0.034421 0.256369 -0.439928 -0.344836 -0.326789 -0.032614 0.004239 0.123756 0.019000 0.069117 0.072415 0.171059 -0.128740 -0.169323 0.024516 -0.033840 -0.024877 -0.163086 0.054309 0.020411 -0.271138 -0.135514 -0.262576 -0.014849 0.027781 -0.105556 -0.063173 0.213656 0.051834 -0.060511 -0.057332 0.058965 -0.080043 -0.121933 -0.109236 -0.129407 -0.098958 -0.125352 0.105293 -0.241066 -0.263686 -0.026818 -0.010075 -0.005245 0.049813 0.241127 -0.024736 0.218231 -0.204579 0.165718 0.154762 -0.181034 0.084013 -0.060299 -0.039886 0.226483 -0.375660 -0.066828 0.013914 0.053400 0.148725 -0.011564 0.226832 -0.101988 -0.329130 -0.070676 0.040108 0.198840 0.171786 0.087122 0.190665 0.058048 -0.088728 0.092042 0.002626 -0.209516 0.033031 -0.232581 -0.115050 -0.065839 -0.266906 0.195545 -0.235433 0.320634 0.006351 -0.036484 -0.173742 -0.178759 0.076395 0.207827 -0.221721 -0.256269 -0.167115 -0.017779 0.243167 -0.165724 0.090969 0.079096 0.109211 0.206728 0.414386 -0.124335 -0.050828 -0.208217 0.073433 0.357285 0.372066 -0.067500 0.283416 0.132905 0.252727 0.084406 -0.127608 0.273469 -0.329565 0.130097 0.031441 -0.081906 -0.040338 -0.185609 -0.129270 0.198595 0.090016 0.021350 0.159403 0.226365 0.011005 0.075105 0.118136 -0.096748 -0.080042 -0.147915 0.061473 0.029840 0.151694 0.133182 0.249571 -0.033164 0.112673 0.108341 0.165589 0.044949 0.086517 0.178278 0.217839 -0.182937 -0.147904 -0.069466
“ 0.178570 0.154526 -0.047317 -0.077393 0.050701 0.194760 0.123717 0.344987 0.136962 -0.134449 0.193874 0.048554 0.179714 0.137263 0.186438 -0.145988 -0.146113 0.084959 0.106629 0.065857 0.070274 0.087779 -0.023436 -0.015744 -0.220637 0.005210 -0.172934 -0.098343 -0.007685 -0.083631 0.098347 0.043333 -0.010083 0.360983 -0.080976 0.010957 0.138248 0.021100 0.132273 -0.043158 -0.238303 0.065971 0.048875 0.178341 0.029787 0.254074 0.116048 0.070723 0.145029 -0.135377 0.161554 -0.028124 0.096691 -0.158465 -0.069476 -0.093974 -0.104368 0.062245 0.091026 0.065736 -0.174439 -0.062153 0.038924 -0.208188 -0.013523 -0.042264 -0.087322 -0.038058 -0.108210 -0.216879 0.080278 0.385103 0.115485 0.250830 -0.151526 0.219746 -0.206066 0.137951 -0.109900 -0.145430 0.020285 0.037295 0.056238 0.097767 -0.101010 -0.077778 0.011319 0.202982 0.060922 -0.116134 -0.106264 -0.109273 0.051744 -0.135819 -0.088452 -0.383440 -0.197069 -0.009703 0.149260 -0.034773 -0.060268 -0.115451 0.029709 0.001425 0.090007 -0.002932 -0.116435 -0.009062 -0.027047 -0.107701 -0.044620 -0.005417 -0.001751 -0.030289 -0.054630 -0.099198 0.197077 -0.223721 0.241484 -0.057627 0.208419 0.141964 0.006041 0.013114 -0.160125 0.110630 0.167402 0.157808 -0.010485 -0.301120 -0.227154 -0.083190 -0.049408 0.020007 -0.017370 -0.004062 -0.097549 0.353457 0.171177 0.146061 -0.211318 0.029538 -0.045060 -0.072256 0.206625 -0.062253 0.055429 -0.049564 0.040372 -0.098702 0.049565 -0.016418 -0.106615 0.099539 -0.180895 -0.272791 0.096281 0.318946 0.022229 0.191715 -0.247611 -0.069849 -0.179204 0.079702 -0.145592 -0.054090 0.143458 0.158039 0.165371 -0.066763 0.032643 0.295477 0.007780 0.318855 -0.065699 -0.165295 0.032685 -0.011994 -0.255199 0.189410 0.009619 0.204371 0.167211 0.168549 0.109461 -0.008994 0.056011 0.178788 -0.205138 -0.147312 -0.096807 -0.075237 -0.149505 -0.043776 0.196308 0.078080 0.016611 -0.094210 -0.285040 0.174338 0.046848 0.205038 0.344955 -0.022689 -0.001573 0.127426 -0.043579 0.126101 0.136436 0.046685 -0.018166 -0.159290 0.230507 -0.032128 -0.049709 -0.043724 0.034336 -0.046264 -0.169612 0.198924 0.119540 -0.093678 0.113318 0.159848 -0.195968 -0.183506 0.157288 0.077767 -0.054204 -0.178485 -0.109882 0.163000 -0.057112 0.089013 0.091834 0.142043 0.071882 0.067074 0.155336 -0.088112 0.210416 0.022835 0.043392 0.023359 0.047243 0.100219 0.091828 0.042117 0.070967 -0.094029 -0.162361 0.207841 0.168786 -0.259621 0.142194 0.041453 0.171272 0.298118 0.076386 -0.005947 0.310371 0.073360 -0.044348 0.056200 -0.115773 -0.231119 -0.042294 -0.021699 -0.062896 -0.086616 -0.213861 -0.180486 -0.062821 0.129221 -0.144981 0.072645 0.078593 -0.035145 -0.073776 -0.071780 -0.174773 -0.133981 -0.058598 -0.114787 0.053249 -0.177600 -0.030317 0.076546 -0.118113 0.180277 -0.174918 0.145918 0.229410 -0.092870 0.096731 0.043403 0.149571 0.242893 0.010201 -0.194680
在 -0.230449 0.037895 0.044406 -0.121188 -0.240615 0.097489 0.356190 0.091021 0.078866 0.077800 0.146676 -0.080511 0.024722 0.210178 -0.098112 -0.092870 -0.048676 -0.057387 -0.012173 0.198562 -0.183994 -0.035882 -0.056348 -0.136127 0.155753 0.169058 0.058748 0.017392 -0.263332 0.031987 0.245019 0.090176 -0.011270 0.107094 -0.009583 -0.065046 0.142123 0.007969 -0.039024 -0.135594 0.106144 -0.025507 0.062057 0.038933 0.040249 0.065837 0.325945 0.060400 0.001703 -0.006965 0.048659 0.079222 0.152366 -0.254345 -0.057158 -0.070470 0.014584 0.099538 0.147184 -0.028517 0.032663 0.008398 -0.034171 -0.010514 -0.026379 0.131343 -0.246734 -0.063186 -0.122373 0.023802 0.082612 0.160496 0.147363 0.014960 0.037697 0.258090 0.090536 0.061566 -0.042566 -0.215979 0.038415 0.057903 0.086056 -0.024732 0.014866 -0.243669 0.049854 0.182741 0.074565 -0.118334 -0.111519 -0.064885 -0.012058 0.131838 0.055121 0.029816 -0.213496 -0.259545 0.126788 -0.140269 0.038508 -0.228004 0.001914 -0.042021 0.227330 -0.129380 -0.125265 0.154246 0.287645 -0.039633 0.157347 -0.011851 -0.076687 -0.146945 0.104521 -0.140713 -0.001478 -0.201456 0.115151 -0.098368 -0.036243 0.255068 0.076067 -0.084001 -0.129916 -0.049498 0.034467 0.100375 -0.048876 -0.277221 -0.278833 -0.006374 0.242063 0.038527 0.279160 -0.046870 -0.250072 -0.087051 0.060380 0.135503 -0.092179 -0.016478 0.059148 0.048113 0.065350 0.021852 0.003551 0.199903 -0.063586 0.018114 -0.048649 -0.311902 -0.033030 -0.187029 -0.279146 -0.070462 -0.189685 0.106942 -0.232762 0.086431 0.077586 0.008056 -0.088131 0.051792 -0.193475 -0.146043 0.090136 0.247032 0.106875 -0.363988 -0.184499 0.171299 -0.137359 0.025087 -0.029518 -0.054576 -0.100088 0.059455 -0.011809 0.186178 -0.164235 0.188733 0.209303 0.117766 0.272600 -0.095448 -0.238843 -0.003232 -0.146841 0.125705 0.010046 -0.032682 -0.147361 -0.050776 -0.155782 -0.061889 0.113105 0.129289 0.050878 0.215005 0.090378 -0.082347 0.190287 -0.113892 -0.118948 0.139940 -0.164671 0.425077 -0.187724 -0.112726 0.125984 -0.019127 0.057623 0.241347 0.002746 0.109283 0.075209 0.091461 -0.208138 -0.008622 0.031136 -0.062156 -0.145609 0.320293 0.095666 -0.064617 -0.021821 -0.009345 0.001157 -0.105177 0.071627 0.055011 0.285901 0.189582 0.072144 -0.016208 0.265080 0.021520 -0.074305 -0.086568 0.063762 0.070279 -0.216418 0.015765 0.093161 -0.042387 0.179813 -0.025025 0.116388 0.012519 -0.073183 -0.118408 0.005778 -0.327159 -0.150343 0.112158 -0.140578 0.138700 0.206675 0.095005 0.039983 -0.107547 0.078413 -0.038902 0.080145 -0.118914 -0.131691 -0.033116 -0.040231 0.007044 -0.204939 -0.091783 0.074255 0.123787 -0.020764 -0.158060 0.001849 0.378458 0.111825 0.085551 -0.041167 -0.178709 -0.220586 -0.071013 -0.026695 -0.264170 -0.268572 0.010304 -0.059501 0.113014 -0.101239 -0.007488 0.021299 -0.041017 0.307733 0.129634 -0.043978 0.004379 0.090773 -0.234996
《 -0.202030 -0.096591 0.091050 0.095721 -0.045374 0.023078 0.070270 0.086348 0.027629 -0.306613 0.218135 0.001502 -0.095590 -0.019999 -0.061352 -0.145807 0.122313 -0.179454 -0.122672 0.067767 -0.127778 0.226525 0.264933 0.282115 -0.105934 0.004903 -0.267800 -0.058040 0.199650 -0.129549 0.025286 0.012283 0.013891 0.185750 0.117336 -0.169663 0.024286 -0.040928 -0.007281 -0.281732 -0.209031 0.100094 0.320944 0.272993 -0.076034 0.227350 -0.090536 0.037929 -0.024501 -0.038932 -0.005366 0.065189 0.298163 -0.101177 0.080239 0.232002 -0.070768 0.027117 0.066523 0.063402 0.162699 0.240179 0.215420 0.009887 0.202311 -0.054439 -0.091130 0.092364 -0.198584 0.060465 -0.049140 0.215251 -0.025598 0.140783 -0.465955 0.269905 -0.058130 0.005702 0.221807 0.138247 -0.091358 -0.113641 0.084297 0.005041 -0.315789 -0.036043 0.334828 0.035798 0.463864 -0.187446 0.174973 -0.003926 0.084349 0.198875 0.038181 -0.272278 0.079349 -0.302280 -0.169263 0.254356 0.027325 0.066388 0.094902 0.062184 -0.099565 -0.290045 -0.064391 0.214451 0.088318 0.012444 0.139186 -0.193065 0.064003 -0.015251 0.068191 -0.232226 -0.108374 -0.212284 0.295152 -0.151077 -0.039352 -0.040159 0.044062 0.218309 -0.083081 -0.088057 0.126566 -0.100220 0.191012 -0.331823 0.070241 0.104236 0.313611 0.079355 0.276402 0.018978 0.013797 0.071668 0.350130 0.026437 -0.212267 0.143057 0.317357 -0.127155 0.310523 -0.127907 0.171388 0.107095 -0.108296 -0.054550 -0.073599 -0.482706 -0.216343 0.001433 -0.094654 0.172435 0.109301 0.237129 -0.268764 0.083521 0.090798 -0.079822 -0.140931 0.088351 -0.273178 -0.269664 0.094074 -0.078059 0.067642 -0.157140 0.001301 0.229551 0.033687 0.078551 -0.055606 -0.239145 0.137729 0.024021 -0.214175 -0.001400 -0.019799 0.016753 0.258476 -0.075102 -0.113848 -0.003685 -0.225889 0.173009 0.085797 0.006089 -0.213731 0.007486 -0.225011 -0.070247 0.189707 -0.201573 0.040916 0.052202 -0.013621 -0.035170 -0.034899 0.227962 0.254979 -0.164529 0.283965 -0.080738 -0.056671 0.077020 -0.199924 0.463026 0.006244 0.111428 0.154998 0.003840 0.272854 0.099238 0.041375 -0.054311 0.026707 0.104993 0.276445 -0.168045 -0.107584 -0.159872 0.031455 -0.202294 -0.065568 -0.450559 -0.037187 0.004228 -0.320462 -0.090131 -0.020685 -0.004614 0.098727 0.182443 -0.382351 -0.051441 0.003633 0.063207 0.243527 0.085304 -0.296272 -0.210377 -0.198690 0.058270 0.273470 0.104289 0.226166 -0.063017 -0.226909 0.246065 0.341849 -0.204617 -0.023121 -0.027027 -0.043906 0.276854 -0.043427 0.074003 0.476068 0.155308 0.169607 -0.000312 0.009636 -0.004311 -0.006758 0.248879 0.374682 -0.154443 -0.342682 -0.061662 -0.184179 0.240945 -0.284097 0.001452 0.129936 0.106412 0.053484 0.083158 0.247439 -0.109516 -0.184914 -0.157504 0.019515 -0.304431 0.107182 -0.244746 -0.168012 -0.163902 0.101789 0.277724 0.435355 -0.310900 0.063468 0.114998 0.099757 0.199244 0.001715 -0.383417
》 -0.226751 -0.091049 0.090450 0.056337 -0.009843 0.079550 0.092803 0.100239 0.017741 -0.249644 0.194155 0.069838 -0.081076 0.023766 -0.080708 -0.193822 0.085188 -0.174204 -0.107851 0.003704 -0.130131 0.242382 0.325496 0.279028 -0.105538 0.004145 -0.288031 -0.097273 0.206710 -0.108036 0.068939 -0.025704 0.033845 0.183508 0.094400 -0.191380 0.054810 -0.025983 -0.022018 -0.239321 -0.202305 0.013804 0.297739 0.329755 -0.086327 0.265579 -0.058412 0.065693 -0.094584 -0.069674 0.012165 0.060458 0.284566 -0.135335 0.134956 0.252594 -0.062237 -0.004530 0.048130 0.054632 0.159450 0.213918 0.195746 -0.033778 0.156579 -0.102957 -0.073489 0.086096 -0.213921 0.055083 -0.003591 0.189723 -0.033141 0.141571 -0.469744 0.254335 -0.077982 0.057132 0.214374 0.186363 -0.096997 -0.135921 0.064015 0.021287 -0.312816 -0.036727 0.349266 0.050215 0.503749 -0.192287 0.156214 0.018351 0.096405 0.173639 0.030080 -0.318026 0.089272 -0.222834 -0.138363 0.342797 -0.042691 0.065477 0.079454 0.009691 -0.098671 -0.258234 -0.084097 0.212002 0.097531 0.059368 0.158060 -0.202680 0.000450 -0.071655 0.068540 -0.153264 -0.152862 -0.233207 0.235889 -0.143569 -0.039910 0.036154 0.061650 0.214410 -0.078577 -0.137959 0.112932 -0.105260 0.189614 -0.266481 0.083212 0.100124 0.350683 0.095384 0.241876 -0.009829 0.027891 0.061316 0.342450 0.053527 -0.213759 0.196295 0.306025 -0.082371 0.321584 -0.122614 0.104501 0.075524 -0.086784 -0.112959 -0.039538 -0.446876 -0.239410 0.024650 -0.070097 0.189429 0.113939 0.274698 -0.198783 0.015739 0.119603 -0.067593 -0.145662 0.080188 -0.246911 -0.262640 0.112383 -0.064095 0.096690 -0.152718 -0.035353 0.255969 -0.044986 0.055211 -0.104058 -0.236652 0.122647 0.046089 -0.231739 0.008176 -0.030693 0.033253 0.216118 -0.100000 -0.105526 0.004647 -0.206117 0.230438 0.048829 0.016874 -0.229769 0.002516 -0.150155 -0.017962 0.172060 -0.163542 0.074982 0.068579 -0.021128 -0.076604 -0.002400 0.252564 0.209408 -0.211753 0.256116 -0.104581 -0.094178 0.130514 -0.211046 0.451346 -0.056649 0.112958 0.215594 0.023555 0.282358 0.150254 0.075227 -0.060926 0.079122 0.121522 0.323073 -0.190841 -0.089914 -0.164058 -0.007512 -0.163258 -0.050412 -0.431211 -0.027247 0.028004 -0.334490 -0.106154 -0.032061 -0.010826 0.070206 0.165549 -0.285075 -0.038908 0.026502 0.083089 0.237343 0.111491 -0.288129 -0.231130 -0.200209 0.130463 0.271384 0.119322 0.217095 -0.053388 -0.277692 0.243468 0.375500 -0.197513 0.017085 0.007602 -0.080228 0.257162 -0.029169 0.069829 0.473467 0.182896 0.181484 -0.007465 -0.019098 0.016867 0.026332 0.195880 0.314307 -0.135739 -0.300155 -0.079690 -0.246052 0.284346 -0.295903 0.000611 0.097550 0.072658 0.032572 0.078604 0.228636 -0.064937 -0.209945 -0.185174 -0.020609 -0.328200 0.134762 -0.191508 -0.173749 -0.102406 0.064929 0.252532 0.446486 -0.283945 0.029914 0.085556 0.111449 0.190730 0.039627 -0.391560
” 0.174237 0.186302 0.037002 -0.073594 0.084480 0.157876 0.099444 0.333406 0.116597 -0.102045 0.180418 0.057574 0.176162 0.144039 0.186584 -0.188280 -0.184554 0.081721 0.080143 0.118073 0.072136 0.131649 -0.014170 0.023678 -0.219108 0.073155 -0.189069 -0.117509 -0.028875 -0.070373 0.138230 0.045487 -0.034038 0.416291 -0.062582 -0.010172 0.143765 0.089690 0.116677 -0.061326 -0.225100 0.036816 0.007173 0.184794 0.046764 0.227686 0.113958 0.116871 0.152736 -0.220193 0.160213 -0.010104 0.129779 -0.167205 -0.119274 -0.134987 -0.116832 0.084563 0.117823 0.073016 -0.182335 -0.112029 0.044797 -0.152190 0.072311 -0.130209 -0.080606 -0.043358 0.010101 -0.196095 0.039059 0.358321 0.134226 0.222181 -0.084974 0.192021 -0.198207 0.103328 -0.074727 -0.163620 -0.006291 -0.047496 0.091466 0.024245 -0.093130 -0.050272 0.063221 0.180078 0.093424 -0.053948 -0.149419 -0.051374 0.034928 -0.134745 -0.100108 -0.355432 -0.249341 0.013772 0.072963 -0.059585 -0.103220 -0.178545 0.146582 -0.037229 0.119230 -0.082921 -0.107630 0.025330 -0.047862 -0.133409 -0.008237 0.005367 -0.043523 -0.035508 -0.053608 -0.079710 0.149504 -0.179204 0.222859 -0.067316 0.189201 0.099844 0.015636 -0.018545 -0.176405 0.071977 0.079517 0.210545 -0.061997 -0.302673 -0.265242 -0.028511 -0.091498 0.052496 0.006242 -0.104660 -0.122412 0.291859 0.086658 0.155523 -0.244016 0.011749 0.004300 -0.032360 0.251515 -0.031526 0.067371 -0.008013 0.012215 -0.148440 -0.015586 0.029856 -0.138196 0.093791 -0.161553 -0.262232 0.137184 0.306442 -0.010935 0.138212 -0.275079 -0.133436 -0.165772 0.072819 -0.150147 -0.101371 0.227322 0.120106 0.179695 -0.057715 0.068134 0.200387 -0.014272 0.341500 -0.063995 -0.175340 0.076931 0.025621 -0.244888 0.122616 0.013691 0.177722 0.184649 0.218201 0.127127 0.017860 0.003638 0.139204 -0.156746 -0.150671 -0.124459 -0.085088 -0.139493 -0.097400 0.208996 -0.024926 0.022014 -0.135481 -0.297738 0.165590 0.074729 0.189802 0.389852 -0.056581 -0.019159 0.163706 0.024372 0.097924 0.181093 0.011006 -0.053427 -0.137623 0.179697 -0.032226 -0.010931 -0.058995 0.041876 -0.045936 -0.200517 0.157012 0.158857 -0.041248 0.016061 0.145298 -0.192824 -0.205370 0.182115 0.157935 0.056133 -0.172254 -0.158182 0.116390 -0.049122 0.137121 0.075455 0.087356 0.084251 0.098192 0.180906 -0.107402 0.236959 0.017698 0.014434 0.069099 0.047769 0.103588 0.119719 0.025829 0.045604 -0.119121 -0.196323 0.235200 0.162186 -0.296479 0.119818 0.077228 0.119562 0.231196 0.068973 -0.039279 0.261582 0.135563 -0.062069 0.002609 -0.084230 -0.237954 -0.001737 0.016785 -0.102784 -0.062408 -0.211405 -0.143930 -0.106926 0.123437 -0.097567 -0.009665 0.075036 0.010850 -0.051842 -0.024206 -0.198905 -0.123968 -0.102162 -0.115662 0.128989 -0.165779 -0.031581 0.101806 -0.134147 0.176306 -0.165452 0.106160 0.268081 -0.060772 0.069675 0.145904 0.132986 0.219625 -0.024937 -0.191970
是 -0.103995 0.018901 0.288231 -0.142640 0.069783 -0.009910 0.075230 0.124412 0.068638 0.081804 0.070125 0.080684 -0.018839 -0.017471 0.066545 -0.062308 -0.014995 0.014928 0.068083 -0.138772 0.049456 0.068966 0.239885 -0.259544 0.003998 0.130036 0.138308 -0.145286 -0.121158 -0.052056 0.172259 0.095394 0.096756 0.011603 0.049472 -0.126911 -0.002476 -0.022675 0.177924 -0.006637 0.008001 -0.120156 0.088488 0.184328 0.065318 0.168104 0.138070 -0.071628 0.091959 -0.291344 0.262094 0.064413 0.088134 -0.145875 0.067245 0.038050 0.058822 0.217919 0.147902 -0.143287 -0.023145 -0.007256 -0.076451 -0.114662 0.032561 0.119502 -0.280338 0.168648 -0.264176 -0.082298 -0.045799 0.057842 0.053542 0.186662 0.088025 0.152609 -0.158194 -0.048412 -0.102541 -0.165388 0.168418 0.104269 0.122954 0.010012 -0.197474 -0.316181 0.016219 0.297107 0.122955 0.000373 -0.116246 0.008774 0.035590 -0.062763 0.152927 -0.105502 -0.220452 -0.258359 0.032788 -0.131449 -0.225477 -0.042152 0.129014 0.096116 0.075280 0.044878 -0.137930 0.096886 0.045664 -0.077703 0.138177 0.061114 0.029497 -0.016123 0.066223 -0.013505 0.177804 -0.265896 0.173441 -0.009740 0.117831 0.153797 0.085081 0.018928 -0.042630 0.020802 0.154853 0.169392 -0.249270 -0.287850 -0.180882 -0.006598 0.178823 -0.074680 0.338017 -0.306504 -0.083752 0.047060 0.025581 0.118058 -0.067070 0.050769 0.336471 -0.127478 0.043345 0.077062 0.166469 0.158177 -0.095234 0.003223 0.020194 -0.088465 0.234637 0.012028 -0.273384 -0.322350 -0.171937 0.064881 -0.079151 0.214333 0.009302 0.098010 -0.143682 0.136716 0.116654 0.068273 0.193535 0.177905 0.183605 -0.213381 -0.014864 0.164237 -0.167265 -0.134735 -0.127418 -0.055759 -0.068374 0.127799 -0.073850 0.043899 -0.163471 0.183672 -0.092942 0.483969 0.165573 0.018590 0.050972 -0.085931 -0.213664 0.011699 0.044564 0.014173 -0.049222 0.005019 0.290680 0.084957 -0.052141 0.223874 0.170103 0.144095 0.139376 0.102458 0.021390 -0.143068 -0.100439 0.072857 0.052611 0.308799 0.064670 -0.190575 0.174826 0.012486 0.117443 0.150580 0.020923 0.122061 -0.059114 -0.007711 -0.025470 0.023006 0.105175 0.111759 -0.012933 0.140977 -0.001183 -0.154501 -0.119256 -0.135446 0.013607 -0.077568 0.015266 0.129967 0.198854 0.122008 0.191832 0.064190 0.071059 0.176730 -0.147031 0.092961 0.192044 0.061092 -0.123788 -0.005784 0.082827 0.167586 0.085355 -0.006005 0.023124 -0.100354 0.092196 0.292092 -0.041853 -0.188159 -0.013581 0.074394 -0.048297 0.147982 0.046246 -0.036072 0.126668 0.101405 0.058870 0.052037 -0.085917 0.052415 -0.142748 -0.084420 -0.006930 -0.058352 -0.247466 -0.206282 0.013535 0.278012 0.031813 0.083042 -0.047128 0.135914 -0.117162 0.201745 -0.033504 -0.143155 -0.185744 -0.083962 0.060998 -0.113104 -0.240966 0.066358 -0.085425 0.155507 -0.210099 0.050264 0.115894 -0.115711 0.111892 0.110982 0.003403 0.208851 0.211471 -0.160737
） -0.213002 0.122570 0.161386 -0.030488 -0.102885 0.208582 0.101749 0.119935 0.000973 0.043148 0.206413 -0.037697 0.090055 0.096359 0.236835 -0.018925 0.135303 -0.063511 -0.101568 -0.104426 0.074181 0.212378 0.165663 -0.073521 -0.032813 0.017091 0.207304 -0.018690 0.156769 -0.070147 0.182755 0.125159 -0.138977 -0.167706 -0.117286 -0.135065 0.127812 0.132391 0.069171 -0.380790 0.190318 -0.211265 0.125688 0.016784 0.106483 0.080932 0.200454 0.036716 0.006960 -0.025561 0.023049 0.031644 0.188552 0.003414 0.174380 -0.042823 0.152737 -0.066006 -0.003640 0.080826 0.058913 0.025949 -0.138216 -0.106088 0.073985 -0.168529 -0.078764 -0.190043 -0.129464 -0.058847 -0.011039 0.169492 0.214156 0.222151 -0.117463 0.230740 -0.076776 -0.020503 -0.002934 0.049999 -0.075914 -0.009575 0.206645 -0.038942 -0.094060 -0.186958 0.197323 0.103213 0.028657 -0.193249 -0.110490 0.201561 -0.064222 0.074566 -0.116556 0.017361 -0.138378 -0.242796 -0.132820 -0.207720 -0.332667 -0.043088 0.140609 -0.001298 0.242823 0.029312 -0.152083 0.204467 0.168917 -0.028469 0.144974 0.204342 -0.180290 0.127723 0.258360 -0.206395 0.008675 -0.514930 0.041092 -0.188198 0.022080 -0.007923 -0.031618 0.227415 0.050884 -0.081392 0.128915 0.017804 0.022527 -0.078635 0.022439 0.051642 0.094292 0.032560 0.226660 -0.007847 -0.211498 -0.096938 0.140705 0.276055 -0.080959 0.065631 0.147336 -0.286052 0.159546 -0.077114 0.003310 0.043328 0.060172 -0.032888 -0.054531 -0.007139 0.222139 0.091318 -0.371054 -0.273034 -0.050216 -0.017263 -0.215484 -0.013633 0.072658 0.106303 -0.186037 0.012321 -0.042794 -0.056599 -0.150112 0.130123 0.024362 -0.148889 0.161613 -0.066793 -0.134062 -0.058041 0.080192 -0.109237 -0.069859 0.032883 0.104813 0.054250 0.007805 0.179358 0.187383 0.050792 -0.056861 -0.203216 -0.121086 0.259686 0.073388 -0.216293 0.093790 -0.138521 -0.294234 0.147747 0.067431 -0.022122 0.149396 0.093788 -0.031953 0.274296 -0.070456 0.145884 0.091615 -0.148601 0.217633 0.231250 0.184576 0.323277 -0.144375 0.138948 -0.009351 0.069590 0.194212 0.119944 0.132237 0.152926 -0.099269 -0.242983 -0.042222 0.128476 -0.143476 -0.198330 0.024100 -0.027078 0.071267 0.016499 -0.138667 0.014352 0.188784 -0.152293 -0.080543 -0.021308 -0.115649 0.061264 -0.006644 0.027982 0.128700 -0.302520 -0.052589 -0.093162 -0.006149 -0.155585 -0.205829 -0.232892 0.130565 0.083413 0.124056 -0.224172 0.053690 -0.050602 -0.152853 0.262906 0.365173 -0.094533 -0.198020 0.114103 0.082435 0.366521 0.428571 0.089764 0.159790 0.079079 0.217251 0.030073 -0.004791 -0.051864 -0.176350 0.166814 -0.016715 0.034833 -0.362922 -0.051773 -0.076737 0.150784 0.205866 -0.076966 0.109121 0.212633 0.208348 -0.036313 0.228645 0.004080 -0.131723 -0.039364 0.140525 0.021616 0.119899 0.289774 -0.108341 0.028305 0.089559 0.145523 0.348161 -0.070307 0.047602 0.167047 0.211149 -0.104007 0.170905 -0.236574
年 -0.115204 -0.047675 0.167346 -0.121042 0.167377 0.385321 0.134791 -0.159125 -0.150955 -0.016448 0.098872 0.187031 -0.066153 0.058529 0.049569 -0.162958 -0.029977 -0.081791 0.061321 -0.092652 -0.010291 0.163880 0.120990 0.130693 0.193955 0.259628 -0.042797 0.285560 -0.226957 0.078504 0.159168 0.142102 0.033846 0.074987 -0.122122 -0.039578 0.169718 -0.087824 -0.174615 -0.020922 0.156749 0.067855 0.272817 0.130368 0.083917 -0.025373 -0.108373 -0.099278 0.316421 -0.138007 -0.124207 0.236698 0.253000 -0.116690 0.180859 0.113246 0.148292 0.085377 0.122863 -0.055708 0.044589 -0.060013 -0.180605 -0.056388 0.125431 0.057510 0.028708 -0.034233 -0.047353 0.035223 0.107320 0.225940 0.116800 0.238376 -0.280111 0.092023 -0.063901 0.070946 0.019865 -0.147717 -0.079268 0.132958 -0.149520 -0.074047 0.096792 -0.105594 0.324000 -0.172252 -0.062074 -0.223884 -0.027378 0.233127 -0.050530 0.228182 -0.015116 -0.077782 -0.212779 -0.494420 -0.109344 -0.127871 -0.159872 0.110704 0.066916 -0.176852 0.005405 -0.148795 -0.084765 0.176336 0.224515 0.020694 0.001136 0.042601 -0.235482 0.119682 0.146611 -0.334431 -0.014405 -0.246741 0.253828 -0.054443 0.121695 -0.094686 0.092216 0.156318 -0.074314 -0.063055 0.295834 -0.014592 0.006942 0.144060 -0.024293 0.106684 0.143391 0.058624 0.038729 -0.121067 -0.238638 -0.000520 0.151482 0.115316 -0.089296 -0.118568 0.078204 0.030870 0.110871 0.070926 0.068745 -0.003065 0.323917 0.256525 -0.171813 -0.038989 0.119716 0.003419 -0.296108 -0.165292 -0.125033 -0.021503 -0.108135 -0.026548 -0.045873 -0.064548 -0.112189 0.112267 -0.301034 -0.127657 -0.082020 0.042698 0.039302 -0.273796 0.269557 0.222935 -0.083708 -0.040489 -0.247140 -0.223024 -0.063070 -0.160102 -0.170257 0.323338 -0.057346 0.128280 0.438558 -0.046336 -0.116446 -0.415167 -0.239017 0.111855 0.103262 0.040019 -0.391761 -0.155300 -0.103922 0.195573 -0.025258 0.084114 0.310120 -0.117249 -0.074871 0.038636 0.106004 0.088058 0.516115 -0.113152 0.085096 0.271550 -0.201947 0.401418 -0.290050 0.239983 -0.007788 0.063932 0.223535 -0.064463 0.145707 -0.183288 -0.111581 -0.133732 -0.000234 0.083138 -0.005746 -0.332803 0.091552 0.121467 -0.027640 0.101854 -0.233755 -0.077488 0.084212 -0.314837 -0.072892 0.048434 0.106453 -0.082364 -0.058898 0.086601 0.146618 0.049102 0.139470 -0.263090 -0.084161 0.003907 -0.118093 -0.139494 0.008171 0.062635 0.180678 0.016951 0.264855 0.164110 -0.086527 0.174761 -0.110201 -0.048478 0.012744 -0.061629 0.033613 0.084023 0.200103 -0.085062 0.361692 0.042691 -0.064156 0.081798 0.136630 -0.120872 0.109049 0.268553 0.073496 -0.069096 -0.515005 -0.123588 -0.100535 0.292679 0.047606 0.025212 -0.089927 0.173509 0.323028 -0.027531 0.056327 -0.194703 -0.143079 0.290000 0.305225 -0.128888 0.006225 0.136351 0.121381 -0.046469 0.004195 0.047411 0.130094 -0.180313 -0.135236 0.204869 0.325643 0.012978 0.132749 -0.131217
一 -0.211982 0.018821 0.164269 -0.154530 -0.104970 0.207447 0.046032 -0.103517 -0.023424 -0.094291 0.186830 0.079669 -0.112425 0.178228 -0.162662 -0.122874 0.062777 0.119567 0.082388 0.119943 -0.036010 -0.075669 0.166750 0.060359 0.096790 0.116546 0.134507 -0.078114 -0.115329 -0.010189 0.020523 0.253840 0.129158 0.070990 -0.069156 -0.158374 0.057428 -0.059990 0.037982 -0.181461 0.111622 -0.065919 0.250601 0.279768 0.120375 -0.064351 0.031308 -0.264391 0.223083 -0.082010 0.192197 0.134785 0.043758 -0.116218 0.030899 0.043163 -0.020786 0.014253 0.093623 -0.039513 0.065160 -0.040597 0.077268 -0.093211 -0.120779 0.206504 -0.125970 0.025707 -0.080720 -0.076783 0.152350 0.142114 0.169654 0.080678 0.050888 0.156285 -0.040845 0.083738 0.124291 -0.201267 0.026227 0.180590 0.191519 0.070284 -0.221731 -0.179098 0.125359 0.114965 -0.001111 0.082074 -0.234439 -0.179750 -0.199483 0.036126 0.183048 0.017942 -0.146700 -0.209575 0.098668 0.017841 -0.367055 -0.156025 -0.102166 0.235124 0.232865 0.058504 -0.226326 0.000475 0.219286 0.012870 -0.016408 0.155363 0.109427 0.188577 -0.060670 0.003273 0.107126 -0.173981 0.219451 -0.214343 0.068916 0.049612 0.022286 0.004107 -0.093230 -0.032805 0.003267 0.256651 -0.136645 -0.237854 -0.106799 -0.129953 0.075840 0.041449 0.320807 -0.346879 -0.260131 0.018409 0.068137 -0.026616 -0.310093 -0.086845 0.048905 -0.126106 0.144243 -0.033842 0.094412 0.155221 -0.153831 -0.049631 0.152020 -0.126180 0.005363 -0.004629 -0.195945 -0.070911 -0.153170 0.044325 -0.034542 -0.021323 -0.003444 0.137124 -0.094769 -0.020061 -0.084041 0.115463 -0.056361 0.163837 0.110881 -0.063415 -0.004480 0.037255 0.006438 -0.094628 -0.076593 -0.094545 0.141154 -0.000494 0.061530 0.182182 -0.106736 0.279802 -0.093330 0.078998 0.320582 -0.062380 0.141888 0.058018 -0.135263 0.109717 -0.019387 -0.140736 -0.280416 0.027431 0.009903 0.052707 0.010278 0.266394 -0.123056 0.206666 -0.041812 0.008339 0.063357 -0.078889 0.027951 0.232679 -0.086855 0.195581 0.009320 0.144394 0.153799 -0.048954 0.169004 0.137656 0.148287 -0.037812 0.024149 0.055294 0.098368 0.075753 0.222940 -0.127060 0.185168 0.076066 0.003071 0.002447 -0.093964 -0.094279 -0.030939 -0.080137 0.021439 0.138036 0.102613 0.180755 0.032962 0.039807 0.169111 -0.148281 -0.194189 0.071277 0.091250 -0.083252 0.024904 -0.061095 0.109338 0.033633 0.156907 -0.117332 0.075999 0.120729 -0.058394 0.161756 0.204883 -0.178522 0.116943 0.023419 -0.078590 0.232914 -0.049046 0.019782 0.089062 -0.139697 0.114029 -0.029961 0.137620 -0.085674 -0.192173 -0.081314 -0.031273 -0.020878 -0.146904 -0.025529 0.134310 0.098194 0.116493 0.110357 -0.138626 0.226546 -0.027737 0.103437 -0.124571 -0.174777 0.018942 -0.128819 0.060453 -0.182113 -0.004009 0.135749 -0.061290 0.087104 -0.196885 0.150406 0.114732 -0.203666 0.085908 -0.005467 0.131479 0.161211 -0.154909 -0.230546
（ -0.180462 0.119600 0.115905 -0.040045 -0.113570 0.244000 0.171855 0.100766 0.010801 0.046102 0.224045 -0.049796 0.097785 0.100389 0.197289 -0.031462 0.091569 -0.109760 -0.043528 -0.125269 0.037108 0.204091 0.129422 -0.058639 -0.016152 0.046556 0.178201 -0.002603 0.165776 -0.078341 0.189407 0.126047 -0.212021 -0.113727 -0.113303 -0.155520 0.077095 0.091553 0.016004 -0.411265 0.182936 -0.248236 0.041561 0.023965 0.100976 0.048192 0.176009 0.017011 -0.046773 -0.051995 0.000902 0.056389 0.232841 -0.013946 0.155099 -0.105215 0.146313 -0.093939 -0.038971 0.124458 0.034765 0.021956 -0.126358 -0.126246 0.030476 -0.187522 -0.086378 -0.190161 -0.153550 -0.104775 0.051636 0.106676 0.194902 0.201768 -0.147247 0.269514 -0.113036 0.025834 0.022891 0.026182 -0.033405 -0.036726 0.147132 -0.010924 -0.066025 -0.138203 0.208467 0.131539 0.026047 -0.153677 -0.108083 0.251446 -0.102286 0.087558 -0.051064 0.009018 -0.212627 -0.235463 -0.131465 -0.219999 -0.320542 -0.049809 0.163936 0.034621 0.171800 0.040641 -0.135274 0.230489 0.161179 -0.071857 0.101097 0.192330 -0.114599 0.199947 0.278554 -0.174154 -0.032866 -0.417690 -0.003443 -0.188426 0.044575 -0.109334 -0.046973 0.218901 -0.072132 -0.049894 0.084172 -0.007381 0.073955 -0.135857 0.000844 0.048227 0.088027 0.089168 0.213612 -0.011144 -0.172766 -0.057510 0.120989 0.214151 -0.079408 0.039758 0.152833 -0.289780 0.138439 -0.063953 -0.041668 0.002364 0.095723 -0.071713 -0.060573 -0.023358 0.248568 0.112778 -0.384986 -0.201084 -0.029276 -0.042393 -0.195704 -0.009292 0.095443 0.083509 -0.226134 0.006683 -0.060123 -0.003355 -0.151495 0.123933 0.055500 -0.135475 0.183593 -0.048147 -0.239479 -0.046715 0.062569 -0.088544 -0.055621 0.042977 0.128962 0.083552 -0.031113 0.194759 0.169531 0.066444 -0.027002 -0.191868 -0.154823 0.232972 0.042579 -0.231136 0.085611 -0.078503 -0.345101 0.157286 0.042055 -0.022332 0.142871 0.084251 -0.019300 0.271071 -0.027056 0.098493 0.119298 -0.172032 0.186584 0.232625 0.117629 0.270170 -0.104550 0.162368 0.024416 0.072272 0.228894 0.119138 0.080625 0.129448 -0.100582 -0.216551 -0.082082 0.109599 -0.135386 -0.178291 0.033764 -0.087868 0.037774 0.020555 -0.144961 -0.026515 0.178165 -0.190961 -0.106190 -0.026230 -0.104520 0.025337 0.004159 0.082048 0.123653 -0.355154 0.029577 -0.058943 0.038614 -0.132060 -0.204674 -0.201759 0.104292 0.127652 0.106796 -0.236259 0.062527 -0.025017 -0.258625 0.284943 0.402922 -0.098799 -0.166333 0.065700 0.072382 0.403792 0.409696 0.056770 0.148617 0.068695 0.176700 0.068017 -0.001937 -0.065817 -0.215556 0.171836 0.020405 0.021755 -0.304281 -0.042195 -0.045949 0.182914 0.103345 -0.115418 0.109180 0.215757 0.185195 -0.071310 0.256111 -0.072530 -0.113250 -0.067313 0.091760 0.059452 0.029402 0.334322 -0.128732 -0.014443 0.073472 0.141415 0.330382 -0.051046 0.113008 0.189851 0.256717 -0.148941 0.175187 -0.210506
了 -0.021168 0.065933 0.027291 -0.178315 -0.038638 0.146678 0.089047 -0.162997 -0.084799 -0.112566 -0.034012 0.124022 0.018981 0.056578 0.179528 -0.040783 -0.225775 0.110502 -0.049957 0.113503 -0.146516 0.129432 0.136215 0.067747 0.158192 0.118672 -0.038035 0.097124 -0.437776 0.023389 0.037757 0.161365 0.288808 0.037764 -0.054974 -0.107385 0.168946 0.110905 0.015372 -0.021375 0.083830 0.069713 0.102346 0.181295 0.075331 0.157046 -0.047417 -0.074522 0.099878 -0.109990 0.296980 0.173726 -0.034458 -0.207481 -0.058113 0.087885 -0.069810 0.093068 0.074587 -0.115255 0.004662 0.045768 -0.087481 -0.002439 0.164542 0.252848 -0.146229 0.062404 -0.090265 0.032801 0.171809 0.111592 0.014802 0.092752 0.107891 0.328697 0.030913 -0.084254 0.223522 -0.148777 -0.045935 -0.081923 0.086304 0.016922 -0.133388 -0.235698 -0.246654 0.009715 0.286356 0.148679 -0.061217 -0.117670 -0.017809 0.161010 0.237215 -0.207441 -0.232428 0.051576 0.018467 -0.050275 -0.176974 -0.224575 0.148411 -0.114245 0.139113 -0.167660 -0.073282 0.029317 0.124645 -0.056625 0.052668 -0.123803 -0.093938 0.014999 -0.013515 0.004923 0.170378 -0.104093 0.133230 -0.289210 0.016453 0.073023 0.024920 -0.034777 -0.181220 -0.168012 -0.123212 0.045401 -0.168030 -0.128332 -0.224738 -0.017375 0.009762 -0.010166 0.274769 -0.285283 -0.229962 -0.103860 0.391729 0.095687 0.036674 -0.187279 0.012412 -0.180341 0.191050 -0.048776 -0.005080 0.064851 -0.084606 0.065351 -0.000460 -0.140214 0.030366 -0.080294 -0.039154 -0.051648 0.126236 0.183369 -0.148707 0.035737 -0.220797 -0.009294 -0.028138 0.073167 -0.147243 -0.134159 0.367429 0.135938 0.149298 -0.156394 0.055217 0.393756 0.016962 -0.133298 -0.017796 -0.052530 0.005653 0.043575 0.036239 0.232105 0.157115 0.199335 0.085151 0.048670 0.311991 -0.071533 -0.168531 -0.165861 -0.015890 -0.081877 -0.183713 -0.128923 -0.239604 0.251673 0.154274 -0.020018 0.010481 0.031034 -0.088250 0.170578 0.145528 0.054130 0.223616 -0.045833 -0.015159 0.193411 -0.294823 0.486305 -0.147318 0.058293 0.039672 -0.014159 -0.110009 0.144755 0.116064 -0.061097 -0.145916 0.136767 -0.074397 0.117886 0.216714 -0.208202 0.098004 0.268012 -0.144058 -0.116810 -0.249159 -0.138022 0.158496 -0.140548 0.007210 0.162122 0.105128 0.154419 0.074877 0.089975 0.023833 -0.001419 -0.042342 -0.150659 0.090006 -0.065150 -0.152856 -0.042842 0.139956 0.045270 0.042876 0.173799 0.105758 -0.054090 -0.090770 -0.135461 0.170529 -0.286371 0.042715 -0.131951 -0.209618 0.219923 -0.113258 0.060511 0.158545 -0.018874 0.001920 -0.026055 0.085937 -0.195776 0.056501 0.024791 -0.154953 0.063388 -0.107131 -0.123600 -0.101422 -0.024126 0.133628 0.056210 -0.102444 0.226573 0.049843 0.099695 -0.040176 -0.214826 -0.258112 0.009030 0.192785 -0.319861 -0.194098 0.220206 -0.147967 -0.090988 -0.151746 -0.060263 -0.018849 0.000504 0.117894 0.071262 -0.122142 0.030661 0.130774 -0.157436
和 -0.247027 -0.102782 0.082681 -0.036573 0.061702 0.185023 0.232423 0.044093 0.020094 0.064857 0.080536 0.037167 0.278283 -0.106970 0.051384 0.115872 -0.001694 0.029744 0.035534 0.026571 -0.079739 0.185467 0.145661 -0.174015 0.028957 0.023360 0.222771 -0.048975 -0.083772 -0.121429 0.059548 0.131531 -0.101706 0.034077 -0.073071 -0.234113 -0.009963 0.125001 0.126670 -0.187333 0.229621 -0.103598 -0.050054 0.201809 -0.008993 0.137702 0.186960 -0.087798 0.062142 -0.149682 0.306804 0.069448 0.154669 -0.382394 -0.048411 -0.134926 0.058924 -0.003687 -0.009548 -0.132040 0.004287 0.184639 -0.094206 0.100761 0.184192 -0.064857 -0.192039 0.092699 -0.308779 0.009998 0.019210 0.123696 0.009735 0.026452 -0.107117 0.248961 0.147846 -0.160434 0.069766 -0.204849 0.027228 -0.123389 0.131688 0.145245 -0.035523 -0.249044 -0.150840 0.212510 -0.048927 0.034372 0.026207 0.042116 0.135055 0.179992 0.184755 0.053596 -0.234355 0.006823 0.211204 -0.111044 -0.035128 -0.219582 0.208168 0.080002 0.158977 -0.129209 0.067346 0.015981 -0.025746 -0.150246 0.042348 0.068080 -0.171732 0.024714 0.247997 -0.051287 0.232307 -0.334290 0.088398 -0.168609 0.054051 -0.048966 -0.055452 0.228563 -0.111582 0.007736 -0.087878 0.113825 -0.049349 -0.232579 -0.167116 0.001513 -0.095718 -0.010116 0.211202 -0.111863 -0.149935 -0.167843 0.214777 0.255514 0.027960 0.009375 0.145179 -0.203548 0.190106 -0.095043 -0.009369 0.085897 0.093499 0.078699 0.018727 -0.040111 0.268989 -0.107919 -0.235864 -0.103312 -0.148347 -0.014012 0.013717 -0.028321 -0.015499 -0.094184 -0.208461 -0.033039 -0.203337 -0.061782 0.107175 0.043153 0.114493 -0.282049 -0.055556 0.109515 0.000751 0.014537 -0.083113 0.085836 -0.020916 0.085898 -0.031103 0.172754 -0.091203 0.147592 0.024547 0.167352 0.198897 -0.058416 -0.074168 -0.027167 -0.027638 0.050944 -0.031309 -0.072729 -0.234129 0.126387 0.142419 -0.065777 0.120119 0.304603 0.104571 0.159071 -0.066814 0.080819 0.115481 0.102611 0.038281 0.112942 -0.173518 0.282935 -0.099279 -0.136811 -0.049667 -0.064697 0.073320 0.034516 0.121309 0.071926 -0.218947 -0.004135 -0.035825 0.250365 0.233498 -0.007495 -0.116054 0.252891 -0.009860 -0.224942 -0.212078 0.031829 -0.080744 -0.202196 0.043159 -0.035378 0.183332 0.085490 -0.146667 0.123646 0.015642 -0.082886 0.081075 -0.039627 -0.263148 -0.018116 -0.207122 -0.090741 0.174765 0.048839 0.079384 -0.169151 0.216052 0.085799 0.029298 0.222720 0.190646 -0.334011 -0.060692 0.030327 -0.131485 0.275511 -0.040931 0.205086 0.061423 0.064702 0.372314 0.104751 0.103618 0.071943 0.054539 0.070864 -0.120521 -0.126064 -0.234546 -0.095761 -0.168075 0.003925 0.092941 0.072179 -0.074266 0.245170 0.083146 0.212908 -0.080216 -0.047256 -0.117342 -0.321114 0.106241 -0.123134 -0.150040 0.093034 -0.182983 0.196477 0.050709 -0.083364 0.009794 0.009435 0.191791 0.232866 -0.190242 0.120474 0.194984 -0.345761
为 -0.127099 0.146321 0.163907 -0.016016 0.025919 0.070756 0.206389 0.223730 0.223594 0.042927 -0.017459 -0.158993 0.073806 0.160587 -0.184224 -0.120810 -0.082274 -0.032529 0.271428 -0.062433 0.108743 0.053171 0.214950 -0.083910 0.010600 0.138004 0.307994 0.068049 0.024238 -0.082595 0.033024 0.251665 -0.226580 0.265930 -0.049600 -0.108307 0.013818 0.063522 -0.107310 -0.232765 -0.115016 -0.200677 -0.055173 0.055530 0.122919 0.249735 0.054392 0.016887 0.209859 -0.134574 0.073380 0.324753 0.099347 -0.084706 0.234501 0.038062 -0.012214 0.254018 0.180385 0.126572 -0.137616 -0.072367 -0.149730 0.120750 0.014028 -0.020020 0.070546 -0.012135 -0.038110 -0.157082 0.099016 0.312311 -0.001161 -0.061091 -0.090452 -0.042678 0.106491 -0.168293 0.051849 -0.175809 0.106261 0.060211 0.188451 -0.064552 -0.050290 -0.262586 -0.008596 0.028503 -0.082203 -0.124415 -0.115886 -0.164257 -0.024941 0.111772 0.035557 0.010825 -0.028064 -0.126117 -0.080276 0.042155 -0.257820 -0.077932 0.233551 0.122319 0.021811 0.265298 0.041152 0.041611 0.044783 -0.012572 -0.094390 0.237442 -0.145612 -0.139463 0.253086 -0.033726 0.125817 -0.215630 -0.063244 -0.066966 0.168516 -0.037213 -0.060253 0.042413 -0.031234 -0.155865 0.037969 0.051321 -0.180242 -0.136747 -0.006163 0.030308 -0.003353 0.083418 0.251940 -0.056200 -0.255342 -0.118580 0.146402 0.164735 -0.181202 0.001267 -0.082341 -0.361201 -0.007114 0.076279 0.263393 0.089232 -0.001782 0.050720 -0.184671 0.025290 0.043586 -0.032416 -0.188435 -0.262435 -0.034085 -0.050198 -0.221792 0.158294 -0.086479 0.279639 0.062359 0.169406 0.052083 0.060220 0.028964 -0.049196 0.223908 -0.241019 -0.075305 0.150226 -0.180059 -0.003004 -0.292781 0.171258 -0.257674 0.048237 -0.301867 0.258664 -0.157183 0.322156 0.050927 0.196672 0.121012 -0.199293 0.176044 0.085457 -0.077317 -0.057547 -0.017604 0.105934 -0.273703 -0.109264 0.088275 -0.000340 0.293313 0.159451 -0.106338 0.247483 0.057873 -0.030710 0.095465 -0.083257 0.048411 0.214389 -0.110569 0.254692 0.016351 -0.199095 0.040980 -0.101548 0.128255 -0.032183 -0.189755 0.110272 -0.284851 -0.085031 -0.026361 -0.006538 -0.042530 -0.115657 0.045955 0.284991 -0.101929 0.029406 -0.003423 -0.120274 0.102699 -0.027930 -0.077620 0.048920 -0.028574 0.063522 -0.120612 -0.008168 0.138535 -0.038773 -0.038354 0.181412 -0.022579 -0.055834 -0.058609 -0.133056 0.113462 0.260941 0.134168 -0.165008 -0.072848 0.045254 0.206149 0.300342 0.132422 -0.234039 -0.124539 -0.062857 -0.077403 0.017918 -0.006905 -0.072483 0.190959 0.025125 0.123493 -0.022889 0.072114 -0.177361 -0.078485 0.022522 -0.089981 0.127402 -0.275067 -0.215749 -0.127259 -0.042167 0.173511 0.131108 -0.061060 0.163994 -0.033731 0.014538 -0.055544 -0.161188 -0.242232 0.009794 0.098234 0.044802 -0.288087 -0.026904 -0.178824 0.106434 0.044922 0.058166 0.038090 0.026678 0.006759 0.067435 -0.011247 -0.028476 0.174471 -0.124528
有 -0.172171 -0.134988 -0.029663 -0.284687 -0.123890 0.031737 0.098676 0.086113 -0.073691 0.169605 0.023271 -0.008324 0.085021 0.186436 0.106788 0.037416 0.088340 -0.059517 0.097905 0.015336 -0.108426 -0.192106 0.235267 -0.202326 0.214524 0.116991 0.110793 -0.082704 -0.053057 -0.070804 0.206928 0.214572 0.067141 -0.034428 0.013388 -0.078563 -0.033746 0.113418 0.148896 -0.269607 0.181646 -0.047787 -0.087937 0.253197 0.122346 0.105847 0.124798 -0.116733 -0.078418 -0.103408 0.015183 0.054007 0.213379 -0.060833 -0.081522 -0.049406 0.006775 0.118803 0.288990 -0.118855 -0.007533 -0.074693 -0.026123 0.103917 -0.059945 0.055590 -0.135034 0.076782 -0.108615 -0.065338 0.032995 0.243008 0.053742 0.046831 -0.214202 0.016967 0.001743 -0.123481 -0.017106 -0.073972 0.106001 0.063843 0.126643 0.248867 -0.253534 -0.251804 0.273819 0.203584 -0.111375 0.087890 0.072587 -0.057884 -0.127618 0.112829 -0.002330 -0.001201 -0.068829 -0.025361 0.235223 0.044792 -0.134645 -0.108740 0.129947 0.041194 0.138243 -0.024266 -0.120182 0.126534 0.083783 -0.040825 0.106948 0.160005 0.171671 0.133693 0.093456 0.127366 -0.014658 -0.119643 -0.045089 -0.188566 0.131107 0.053585 0.098271 -0.068967 -0.080338 -0.123494 -0.113575 0.161615 -0.068773 -0.333501 -0.114699 -0.007927 0.147800 -0.122940 0.343882 -0.107126 -0.238480 0.024084 0.154933 0.008078 -0.062615 0.100121 0.087470 -0.108511 0.008825 0.059920 0.207135 0.102672 -0.153395 0.024664 0.134426 -0.157205 0.077681 -0.050530 -0.400702 -0.126499 0.035525 0.040086 0.013868 0.135747 0.106509 0.107044 -0.109319 -0.100156 -0.046373 0.039316 0.142059 -0.010091 0.045394 -0.225929 0.019472 0.097383 -0.134825 -0.036957 -0.002547 0.157724 0.108239 0.165667 -0.046685 0.074101 0.149968 0.161161 -0.025363 0.220870 0.099116 -0.023166 -0.242664 -0.087628 -0.142233 0.033112 -0.008509 -0.181342 -0.043810 -0.104316 -0.033305 0.237937 0.166967 0.118053 -0.066777 0.412173 -0.013971 0.133792 0.015433 -0.119866 -0.182106 0.016723 -0.178519 0.160354 0.108007 -0.261078 0.086942 -0.104514 0.008035 0.037566 0.006469 0.186308 -0.001392 0.167698 -0.208688 0.076378 0.046979 0.073224 0.050754 0.142355 -0.131493 -0.253703 -0.110670 -0.027037 -0.081570 -0.333870 0.100713 0.185266 0.164970 0.121366 0.008150 0.030893 -0.006885 0.149961 -0.191579 -0.126623 0.131330 0.017765 -0.093433 0.137465 0.020548 -0.004776 0.115083 -0.212045 0.115974 -0.116526 0.126821 0.087656 0.229611 -0.048983 0.189499 0.078318 -0.065927 0.192572 0.032209 -0.149545 0.095974 0.296847 0.109610 0.116697 0.044139 -0.093597 -0.007185 0.116771 -0.224902 0.219542 0.007898 -0.126748 -0.184331 0.009537 -0.123079 -0.091513 0.107425 0.157523 -0.119737 0.096977 -0.017743 0.030228 -0.112884 -0.174979 0.054729 -0.091262 0.027742 -0.088808 -0.151037 0.188205 -0.010250 0.021314 0.127243 -0.207187 0.144051 0.253286 -0.109662 0.193963 0.097064 -0.090494
与 -0.195648 0.053631 0.192322 -0.114267 0.016621 0.148325 0.273578 0.080042 0.101183 -0.190221 -0.041480 -0.249068 0.068523 0.070861 -0.038181 0.086901 0.106424 -0.026723 0.023341 0.070556 -0.031993 0.283810 0.178019 -0.163204 -0.204092 0.054763 0.294754 0.056553 -0.073352 0.095315 -0.123207 0.091148 0.014528 -0.044264 0.032959 -0.121552 0.070671 -0.011017 0.172492 -0.279108 0.239214 -0.197746 -0.062252 0.102315 0.182896 0.169935 0.110746 0.007021 -0.018102 -0.176220 0.117415 0.216684 0.096761 -0.111469 -0.122006 -0.220190 0.159717 -0.159227 0.272015 -0.186731 0.015132 0.167977 -0.023184 0.048087 -0.010595 0.007470 -0.215927 0.047726 -0.177562 0.052891 -0.045940 0.356281 0.096745 -0.119459 -0.103130 0.165252 0.220962 -0.200621 0.255450 -0.326563 -0.013780 -0.034767 0.337451 0.001612 -0.112217 -0.059296 -0.028953 0.174749 -0.172712 -0.033693 0.039247 0.029295 0.001570 -0.008358 -0.017557 0.301661 -0.192450 -0.340380 0.134940 -0.003753 -0.166985 -0.272341 0.076291 -0.056991 0.155303 -0.102482 -0.035069 0.153713 -0.039742 -0.309312 0.006283 0.018480 -0.156228 0.087224 0.088471 -0.085381 0.035679 -0.307877 0.124574 -0.029491 -0.013343 0.094853 0.035754 0.134948 0.026297 -0.002155 -0.032674 0.133217 0.152426 -0.326603 0.006803 -0.008220 0.108297 0.024605 0.270393 -0.033970 -0.241131 -0.061015 0.037781 0.227992 -0.130626 -0.095377 0.269302 -0.216792 0.267498 -0.169230 0.109115 0.085932 -0.030306 -0.098183 -0.312549 -0.123062 0.111404 -0.212993 -0.166419 -0.255130 -0.178739 0.015279 -0.043852 0.280310 0.087650 -0.139006 -0.054624 -0.003723 -0.316279 -0.214199 0.148955 -0.150881 0.141401 -0.233414 -0.044884 0.051031 -0.001654 -0.054423 0.121257 -0.035923 0.023601 0.003445 -0.031544 0.252682 -0.046850 0.104233 0.080851 0.249559 -0.061011 0.095855 0.049529 0.111263 0.018837 0.210078 -0.044252 0.054481 -0.117869 -0.097458 0.090670 -0.141838 0.083705 0.192189 -0.144937 0.042931 -0.028014 0.062793 0.109183 0.224079 0.146958 0.107886 -0.372065 0.056152 0.067741 -0.214438 -0.031893 -0.099440 -0.003325 -0.037763 -0.001654 0.180715 -0.247710 -0.025397 -0.068090 0.176193 0.273763 -0.158746 -0.164590 -0.021659 -0.305762 -0.026612 -0.104302 -0.067861 0.031894 -0.087588 -0.016000 -0.219952 0.280557 0.130812 -0.070976 0.198862 0.087431 -0.109112 -0.069128 0.115821 -0.082246 -0.215977 -0.200118 -0.114469 0.123269 0.072798 0.117717 0.004026 0.193189 0.067946 0.117777 0.206040 0.332871 -0.129969 -0.097927 0.065935 -0.025276 0.334996 0.208814 0.248264 0.107446 -0.084193 0.160942 0.169414 0.213680 -0.116738 -0.176010 0.241818 0.131824 0.054945 -0.115208 0.055320 -0.146750 0.016859 -0.032532 -0.010995 0.061275 0.152794 0.042176 0.195184 -0.110409 0.027629 0.019788 -0.193741 0.155670 -0.192064 -0.212942 -0.142063 -0.262034 -0.003938 0.024845 -0.094713 0.180414 -0.134675 0.112495 0.274220 -0.101830 0.288576 0.198331 -0.109719
. -0.081519 0.272970 0.419343 -0.221027 -0.049928 0.110632 0.000631 0.327777 -0.047881 0.133101 0.459860 -0.071310 0.260007 0.115295 0.099409 -0.055288 0.116108 -0.062937 -0.093876 -0.144615 0.069270 0.305440 0.207291 -0.053872 0.105679 0.124844 0.160918 0.122135 -0.128233 0.070652 0.312902 0.133038 -0.112405 -0.224655 0.004125 -0.129940 -0.013690 -0.245675 0.105001 -0.377788 -0.061897 -0.029627 -0.161084 -0.036688 0.076688 -0.104945 0.089001 -0.139595 0.074601 -0.159086 -0.089486 -0.038368 -0.012820 -0.210472 0.064274 0.176485 -0.256970 0.287415 0.144901 -0.138985 0.292508 0.063312 0.091697 -0.090234 0.369940 -0.098398 -0.106867 -0.061739 -0.258645 0.098766 0.127026 0.356602 0.099526 0.177024 -0.162640 0.231653 -0.104475 0.086368 0.038824 -0.122684 0.016061 -0.245028 0.108886 -0.057918 -0.298725 -0.232983 0.166950 0.196626 -0.076173 -0.173591 0.059588 -0.250521 -0.220634 0.232133 -0.097009 -0.079532 -0.134740 -0.380603 -0.225820 -0.143701 -0.229230 -0.006763 0.257285 -0.010475 0.056002 -0.345901 -0.277852 0.214107 0.315808 0.089207 0.138850 -0.060262 -0.122857 0.217634 0.202719 -0.547728 -0.007154 -0.401964 0.075354 -0.346455 -0.217353 0.107591 -0.113714 0.183204 0.038958 -0.143356 -0.084526 0.055067 -0.094107 0.035373 -0.114478 -0.170020 0.162203 0.205216 0.237385 -0.287658 -0.206165 0.020167 0.212530 -0.023590 -0.021708 -0.035156 0.095514 -0.163642 0.362845 0.047001 0.235514 0.017700 0.115759 -0.130001 -0.055372 0.135140 -0.204557 -0.045373 -0.429779 -0.309037 -0.326518 -0.081179 -0.033511 0.021300 0.067104 0.376744 -0.044927 0.173648 0.035552 -0.050520 0.015146 0.018588 0.153510 -0.128512 -0.072830 -0.143974 -0.169100 -0.185802 -0.020217 -0.106696 -0.104722 0.097799 -0.005233 0.140986 0.209553 0.224366 -0.141791 0.192510 -0.162728 -0.036698 -0.052286 0.023835 -0.017321 -0.057034 0.262313 -0.033841 0.042000 0.238172 0.033454 -0.013255 0.016304 -0.123535 -0.038585 0.219154 -0.225765 0.199395 0.232070 -0.103987 0.109303 0.239169 -0.254959 0.078816 -0.285540 0.139089 -0.128965 0.220378 0.017701 0.256739 0.258933 -0.128211 -0.148408 -0.056396 -0.098195 0.233348 0.021309 0.039874 0.112052 -0.050242 -0.132596 0.127858 -0.240886 -0.188800 0.350084 -0.044699 -0.171115 -0.149766 -0.286844 -0.168835 0.119696 -0.154306 -0.173968 -0.260852 0.059567 -0.181491 0.062355 0.298583 -0.198964 0.075140 0.015858 0.051262 0.164100 -0.029564 0.295944 -0.169295 -0.115148 0.080522 0.368735 -0.006601 -0.095261 -0.134056 0.034867 0.122496 0.290203 -0.116420 0.182894 -0.085720 0.239813 0.126507 -0.249193 0.376983 -0.096267 0.100040 -0.011252 -0.176537 -0.267106 -0.098627 -0.155868 0.131169 -0.018677 -0.020820 0.133109 0.154928 -0.053846 -0.203724 -0.002127 -0.181432 0.112336 -0.320230 -0.049281 -0.168463 -0.098033 -0.037974 0.242639 0.160116 0.172924 0.148864 0.417375 0.001666 0.122778 0.271650 -0.128380 -0.107444 -0.090669 0.157712
( 0.034147 -0.018178 0.229024 -0.161756 -0.105048 0.138698 0.154871 0.198871 -0.003552 0.038148 0.228006 -0.165428 0.279028 0.292716 -0.038944 -0.063001 0.054604 0.039287 -0.087110 -0.228475 0.160471 0.217100 0.199831 0.102096 0.133098 0.309784 0.057184 0.232022 0.063444 0.037617 -0.013282 0.259884 -0.068457 -0.364729 -0.037301 -0.132918 -0.103649 0.042982 -0.112549 -0.376683 0.065955 -0.011276 0.258648 -0.032010 0.259356 0.147927 0.200307 0.163257 0.020783 -0.230068 -0.079397 -0.071574 0.123255 -0.184537 -0.016937 0.154276 -0.117907 -0.027925 0.164664 0.065261 -0.040225 -0.117024 -0.203693 -0.219434 0.330462 -0.118523 0.196970 -0.086071 -0.198731 0.051433 0.030296 0.173740 0.187027 0.073491 -0.112754 0.452506 -0.224309 0.214178 -0.069073 -0.131325 0.172546 0.127635 0.252393 -0.078573 -0.432467 -0.161215 0.388489 0.079996 0.047960 -0.167368 0.071420 0.016810 0.037260 0.076840 0.219724 0.154237 -0.162084 -0.184824 -0.257306 -0.148191 -0.352662 0.283364 0.213897 0.039867 0.231573 -0.183598 -0.032584 0.098237 0.215616 -0.092386 0.204235 0.037161 -0.114603 0.240374 0.358618 -0.178394 0.071142 -0.441383 0.136716 -0.224106 0.104559 -0.205081 -0.162407 0.197541 -0.117383 -0.028943 -0.012472 0.027872 -0.009819 0.048585 -0.016644 -0.051839 0.356891 0.163492 0.291422 -0.263733 -0.369771 -0.246130 0.139005 0.261377 -0.045719 0.248844 0.024378 -0.200305 0.229637 0.005831 0.164211 0.102020 0.000114 -0.147901 -0.158036 0.106578 0.121058 -0.018469 -0.317095 -0.156258 -0.015821 -0.044907 -0.103426 0.080829 0.211437 0.069393 0.032297 0.028590 -0.099062 -0.071739 -0.197382 0.162938 -0.074158 -0.250496 -0.112693 -0.123687 -0.299840 0.096960 0.021120 -0.164763 -0.226673 0.050875 0.018847 -0.052857 0.040830 0.074525 -0.023443 -0.063490 0.033259 -0.322337 0.012280 0.093425 -0.014815 -0.265574 0.210778 -0.144542 -0.150538 -0.109414 -0.083844 0.026800 0.152409 0.134816 0.014871 0.143584 -0.218276 0.287356 0.215622 -0.216231 0.237820 0.213461 0.067959 0.236582 -0.140160 0.210098 -0.156344 0.158732 0.040200 0.212514 0.259064 0.061808 -0.223265 -0.226921 0.040078 0.219476 -0.003070 -0.236583 -0.102185 -0.068350 -0.078137 -0.112423 -0.101064 -0.060378 0.053687 0.148426 -0.213669 -0.157809 0.052699 0.056664 -0.047942 0.154899 0.190197 -0.248648 -0.019468 -0.207122 -0.027218 0.113666 -0.497085 -0.203822 -0.043119 0.045996 0.323755 -0.171917 -0.055573 0.189974 0.016592 0.106066 0.323955 -0.228152 -0.049610 -0.001829 -0.004038 0.300712 0.150151 0.098915 0.293213 -0.034838 0.111734 -0.040995 -0.001115 0.128305 -0.270460 0.272341 0.059955 0.027217 -0.257775 0.072439 -0.261378 0.296566 0.026077 -0.147715 0.122764 0.201717 -0.018110 0.128966 0.136159 -0.048643 -0.268906 -0.342951 -0.034385 -0.192805 -0.036209 0.349071 0.108499 0.115660 0.093805 0.191645 0.295381 -0.133554 0.154276 0.185301 0.281479 -0.185730 0.095868 0.062652
) 0.004317 0.000258 0.252445 -0.172132 -0.155166 0.097889 0.133262 0.135294 0.023537 0.065870 0.151910 -0.100791 0.243475 0.298400 -0.058135 -0.047046 0.028653 0.081907 -0.029598 -0.242514 0.137770 0.232416 0.264230 0.023122 0.111871 0.312910 0.071547 0.217500 0.034527 0.044152 0.003330 0.238218 -0.041002 -0.308356 -0.017805 -0.190208 -0.057610 -0.006464 -0.101004 -0.325664 0.049689 -0.031744 0.252894 -0.009479 0.228862 0.194510 0.214575 0.115135 0.054544 -0.184699 -0.090085 -0.032711 0.171937 -0.186715 -0.042241 0.124455 -0.084063 -0.006142 0.184361 -0.000391 -0.061548 -0.066429 -0.174258 -0.284488 0.328449 -0.126610 0.112737 -0.152935 -0.214801 0.026328 -0.005363 0.126774 0.210225 0.120601 0.017061 0.470935 -0.184072 0.146143 -0.072190 -0.121900 0.153214 0.097063 0.236233 -0.080410 -0.394263 -0.166562 0.410389 0.109222 0.062333 -0.276284 0.040048 -0.017631 -0.005454 0.062776 0.186331 0.205850 -0.169004 -0.124716 -0.209678 -0.185933 -0.341346 0.221005 0.202527 -0.084018 0.194408 -0.206121 -0.037556 0.158863 0.200062 -0.138004 0.271968 0.014537 -0.153752 0.202584 0.404930 -0.255165 0.093691 -0.391813 0.117025 -0.205874 0.116334 -0.154437 -0.069863 0.235219 -0.159294 -0.042739 0.014410 0.095991 0.033543 0.053817 -0.051128 -0.004213 0.413109 0.180338 0.234226 -0.290333 -0.409557 -0.165014 0.135665 0.207803 -0.041163 0.267654 0.014645 -0.227039 0.239757 -0.014608 0.203838 0.048603 0.079676 -0.124463 -0.127239 0.038323 0.044730 -0.042754 -0.362458 -0.241472 -0.063337 -0.085418 -0.121520 0.097693 0.256542 0.090636 -0.014052 0.104787 -0.045503 -0.088351 -0.207482 0.109906 -0.052835 -0.256322 -0.067771 -0.096542 -0.306491 0.051837 -0.072435 -0.113233 -0.234574 -0.009803 -0.007075 -0.041059 -0.014553 0.064654 -0.129022 -0.029062 0.065810 -0.294554 0.057191 0.066064 0.094245 -0.297132 0.222641 -0.162220 -0.100990 -0.149970 -0.062108 0.058016 0.130471 0.220281 -0.043067 0.120191 -0.219429 0.270878 0.155315 -0.240785 0.208096 0.181716 0.104466 0.249648 -0.236231 0.204036 -0.177449 0.171115 0.044513 0.219054 0.245225 0.053467 -0.211241 -0.266045 0.086800 0.258155 -0.027096 -0.214942 -0.149724 -0.086071 -0.095954 -0.029231 -0.158602 -0.085858 0.024367 0.080036 -0.201531 -0.160585 0.029761 0.082563 0.045280 0.224494 0.135059 -0.232712 0.000574 -0.129760 -0.056817 0.109842 -0.448798 -0.213041 -0.077987 -0.060492 0.305440 -0.109816 0.036098 0.139203 0.028087 0.085639 0.310493 -0.175443 -0.118746 0.053578 -0.016279 0.273188 0.170241 0.111033 0.244239 -0.010827 0.163290 0.022635 -0.019883 0.180203 -0.327778 0.280614 0.020853 0.005981 -0.319575 0.016037 -0.243414 0.320228 0.074373 -0.179919 0.102961 0.197718 -0.006716 0.154274 0.154779 -0.005745 -0.273156 -0.327036 0.059747 -0.100151 -0.028184 0.305069 0.127839 0.126812 0.176686 0.189537 0.334522 -0.165716 0.070327 0.214913 0.270559 -0.188903 0.110378 -0.000337
人 -0.204936 -0.076442 0.203127 -0.041532 -0.086235 0.103152 0.191221 -0.041933 0.018230 0.029756 0.000424 -0.109328 0.031381 0.109216 0.164944 0.028464 0.093337 0.140207 0.162908 0.102356 -0.040348 0.104218 0.286279 -0.303357 0.157976 -0.209233 0.019713 -0.176751 -0.041176 0.003621 0.086612 0.010092 0.140362 -0.175740 0.216833 -0.049233 0.022853 0.165323 0.240240 -0.235583 0.252416 -0.171311 -0.018153 0.308450 0.157665 -0.269132 -0.219060 -0.069595 0.095801 0.015793 0.069267 -0.013069 0.251218 -0.057029 -0.044783 -0.037363 -0.099173 0.288287 0.184307 -0.017961 -0.103763 -0.172257 -0.116572 0.056549 0.158235 0.112149 -0.262742 -0.055775 0.026682 -0.102709 0.156707 0.271381 0.218527 0.194171 -0.199401 0.130718 -0.003397 -0.174811 0.094994 0.148411 0.014548 0.030524 -0.007419 -0.070120 0.001209 -0.305497 0.290240 0.169410 -0.364280 -0.149326 -0.096777 0.088295 0.048138 0.098762 0.124938 0.083789 -0.233238 -0.223125 0.014522 -0.077628 -0.114588 -0.053933 0.165795 0.078553 -0.219030 0.330210 -0.143808 0.100139 0.181058 -0.213009 -0.106252 -0.115254 0.087119 -0.102609 0.079400 0.004708 -0.006872 -0.270362 -0.059346 -0.105366 0.046494 0.173705 0.136172 -0.068080 -0.198122 -0.002643 0.176537 0.329413 0.016529 -0.046854 0.081847 -0.060495 -0.066430 0.330224 -0.005871 -0.301583 -0.011103 -0.012602 0.055174 -0.007658 -0.021365 0.019294 0.198172 -0.131011 -0.000637 -0.124610 0.091856 -0.080609 0.132218 -0.085500 0.082748 -0.240909 -0.035228 -0.080813 0.120298 -0.097587 0.118177 -0.188220 -0.111704 0.018028 -0.054265 0.052564 0.019117 -0.037748 -0.031038 0.031649 0.072058 0.118844 0.209177 -0.191395 0.025457 0.118628 0.011932 -0.098597 -0.188017 0.086431 -0.001018 0.190281 -0.003066 0.181722 0.314729 0.147787 0.254008 0.045304 -0.174141 -0.068604 -0.330286 0.269230 0.124345 -0.051863 -0.004822 -0.098071 -0.114625 -0.070941 -0.046112 -0.137902 0.073704 0.171204 0.067462 0.141845 -0.074853 0.063494 0.102463 0.008657 0.133706 0.022596 -0.069471 0.066670 -0.052929 0.009541 0.091626 -0.158860 0.065229 0.144167 -0.049503 -0.170634 -0.133241 0.150690 -0.246439 0.262962 -0.090604 -0.083060 0.083048 0.303293 -0.120560 -0.279984 -0.412100 -0.145148 -0.004725 -0.242593 0.058118 -0.009873 0.061329 0.189558 0.060756 0.224618 0.120675 0.126385 -0.025911 -0.380547 0.306681 0.169025 0.026838 0.233914 0.058391 0.081878 0.110435 0.014082 -0.119908 -0.095616 -0.045164 -0.110394 0.116518 0.169313 -0.048849 0.112976 0.000895 0.085940 0.326114 0.174578 0.128483 0.098208 -0.009309 -0.192059 -0.086258 -0.237523 -0.014360 0.138875 -0.257248 -0.029692 -0.223033 -0.145666 -0.058604 -0.003656 -0.097984 -0.051942 0.020373 -0.010649 0.098440 0.294456 0.067572 -0.009584 0.030884 0.113542 0.114972 -0.294985 -0.043255 0.070349 -0.175878 -0.001051 -0.143215 0.032604 0.084772 -0.112639 0.150761 0.176605 0.218530 -0.000104 -0.097276 0.077033
； -0.072155 0.123676 0.093280 -0.179003 -0.084600 0.148995 0.022046 0.208881 -0.080210 0.091082 -0.014838 -0.089826 0.105134 0.159878 0.317598 -0.109833 0.043186 0.024878 0.229133 0.125263 0.114711 -0.217895 0.196645 0.140899 -0.022319 -0.189468 0.391106 -0.010554 0.124119 0.146166 0.229160 0.227116 -0.226797 0.249369 -0.064772 -0.095356 0.162149 0.068970 -0.121627 -0.132838 0.136366 -0.216400 -0.071224 0.086329 -0.073497 0.084335 0.117479 -0.248688 0.155337 0.214434 -0.168819 0.143982 0.058023 -0.257468 0.001515 -0.023982 0.107465 -0.051057 0.136788 0.102982 -0.024617 0.112090 -0.147401 0.241826 0.101436 -0.237862 0.019194 -0.086417 -0.248965 -0.107878 -0.009258 0.170232 0.067544 0.071823 -0.214164 0.119522 -0.045763 -0.157643 0.159877 -0.129861 0.038417 -0.014705 0.247682 0.138751 -0.016423 -0.213977 0.253267 0.188420 -0.231096 -0.008878 0.106868 -0.091069 -0.103380 -0.007135 -0.104146 -0.104936 0.107926 -0.039339 -0.031753 -0.051634 -0.159921 -0.006288 0.109005 0.177601 -0.038086 0.013684 0.065570 0.038871 0.120925 -0.182682 0.020097 0.231252 0.059116 0.088584 0.028729 0.039294 -0.194156 -0.265037 0.050928 0.031303 -0.166194 -0.022241 0.036863 -0.060486 0.009998 -0.298991 0.036695 0.094581 -0.121253 0.005859 0.036467 0.217551 -0.097125 0.091558 0.065178 -0.234921 -0.321488 0.120752 0.264283 0.342219 0.122960 0.031564 0.101204 -0.250512 0.148418 0.050952 0.065905 0.043070 0.039603 -0.186882 0.015700 -0.045857 0.152026 -0.106361 -0.289111 -0.154347 -0.252890 -0.175383 -0.131161 0.066672 -0.007432 0.051803 0.090379 -0.011677 -0.131295 -0.012219 0.090841 -0.051782 0.017593 -0.114924 0.058164 -0.160055 -0.071213 0.072638 -0.035785 0.052918 -0.109034 -0.011628 -0.281950 0.240742 -0.083303 0.091501 -0.093339 -0.024502 0.061209 0.077078 -0.142152 0.048762 -0.030081 -0.007416 -0.115445 0.027383 -0.265304 -0.335809 -0.130456 0.172502 0.152861 0.005083 0.082580 0.343680 -0.032941 0.146154 0.089994 -0.058368 0.116789 0.047194 -0.060966 0.128566 -0.154025 -0.183542 0.015273 0.028600 0.100125 -0.017244 0.008831 -0.048536 -0.201681 -0.232201 -0.436386 -0.044269 -0.170689 -0.076555 -0.034611 0.239175 0.081377 -0.174510 0.052307 -0.001984 0.053342 -0.201850 -0.063692 -0.164465 0.070131 0.040439 -0.089492 0.110916 0.180731 -0.178481 -0.019774 -0.125594 -0.254414 -0.061478 -0.033822 0.071765 -0.031441 0.021130 0.141690 -0.085301 0.235190 0.040028 0.106977 0.220509 0.341759 -0.080894 0.064047 -0.206480 -0.020120 0.123811 0.141926 0.209910 0.202743 0.125382 0.431859 0.053190 0.108124 -0.055110 -0.082803 0.085724 -0.062198 0.146751 -0.269570 0.110904 -0.145805 0.088408 0.083357 -0.215763 -0.038865 0.137444 0.150394 0.138722 -0.180481 -0.100010 -0.082131 -0.018394 0.154500 0.004762 -0.190186 0.014313 -0.211204 0.338999 0.142595 0.282781 0.275094 0.062180 0.199548 0.353089 0.037049 0.192202 -0.097958 -0.086110
一个 -0.238173 -0.071766 0.110878 -0.100925 0.120798 0.150325 0.042669 0.011523 0.181256 -0.062330 0.134393 0.056812 -0.043825 -0.058841 0.001851 -0.049281 -0.019606 0.069944 -0.056405 0.110747 0.232576 0.044770 0.302505 -0.280883 0.303679 0.045107 0.178827 0.040896 -0.088251 -0.087766 0.138508 0.141684 0.511432 -0.066914 -0.027064 -0.138387 0.142118 -0.086363 0.085811 -0.065334 -0.086902 -0.211253 0.193000 0.310694 0.126238 -0.052260 0.062789 -0.077907 0.154068 -0.308358 0.322788 0.156504 0.193693 -0.052583 -0.060670 -0.147808 -0.008140 0.112239 0.331330 0.081487 0.070747 -0.070209 0.048622 0.015141 0.012466 0.232344 -0.115714 -0.083262 -0.092649 -0.156491 0.102168 -0.020071 0.014539 0.176549 0.119172 0.269897 -0.006966 -0.000563 0.002558 -0.357855 0.123236 0.323271 0.167048 0.281623 -0.023846 -0.087194 0.168826 0.095611 0.293201 0.168597 -0.412784 -0.030430 -0.176886 0.029975 0.374230 -0.016635 -0.242723 -0.320285 0.045356 -0.046378 -0.309547 0.009422 0.072199 0.178348 0.284337 0.138568 -0.043729 0.006170 0.300520 0.038711 -0.110120 -0.176973 0.153100 0.183513 -0.172529 -0.140375 0.126687 -0.231438 0.251927 -0.244920 -0.167207 -0.065875 0.125600 -0.048238 -0.103655 -0.181184 -0.062533 0.226354 -0.344491 -0.508272 -0.181861 -0.144221 -0.019322 0.117725 0.159952 -0.449070 -0.322621 -0.054646 0.294943 0.195859 -0.218562 -0.010170 -0.014956 -0.383924 0.277025 0.063016 -0.081810 0.041947 -0.171699 0.037127 -0.094317 -0.271849 0.072372 -0.077444 0.103807 -0.191085 -0.139754 0.103787 0.033274 -0.053625 -0.027109 0.051760 -0.089557 0.028644 -0.268614 -0.151681 -0.028796 0.508972 0.099345 -0.273159 -0.042862 -0.002161 -0.027439 -0.227852 -0.090715 -0.016710 -0.066798 0.098559 -0.009162 0.337141 -0.128630 0.330736 -0.059097 0.125706 0.308710 -0.015365 -0.014780 -0.018782 -0.232140 0.024737 0.013950 -0.227602 -0.121425 -0.090848 0.142188 0.100891 0.151821 0.182392 0.045846 0.172845 0.048757 0.078385 -0.070891 -0.296447 -0.022255 0.211421 0.065331 0.131949 0.123390 0.126084 0.215893 -0.020372 0.154526 0.147982 0.082809 -0.124419 0.009778 0.196485 0.059988 0.118881 0.092004 0.122576 0.195133 0.143873 0.037989 -0.184567 -0.199269 -0.091834 -0.152761 -0.192338 -0.245168 0.030393 -0.052215 0.318847 0.258031 0.159088 0.255083 -0.125159 -0.269947 -0.259453 0.212059 0.129030 0.150518 -0.123973 0.326686 0.036434 0.285987 -0.093864 -0.084335 0.066557 -0.030553 -0.055379 0.118310 -0.065615 0.240747 0.333112 -0.267199 0.162046 -0.048213 0.030858 0.215706 0.224865 0.193973 -0.040983 0.056997 0.123874 -0.131302 -0.285980 -0.168957 0.167995 0.101967 -0.245390 0.157694 -0.013487 0.148960 0.240361 -0.006445 0.284515 -0.072363 0.095558 -0.455353 -0.193060 0.063152 -0.149907 0.199168 -0.265415 -0.166712 0.021145 -0.022136 0.123420 -0.244014 -0.022789 0.248565 0.117909 0.292451 -0.133434 -0.031991 0.279844 -0.027506 -0.275985
等 -0.058252 -0.029835 -0.078017 -0.161961 -0.075298 0.066325 0.296134 0.085784 -0.042830 0.114450 -0.095240 0.016857 0.354449 0.201114 0.107452 -0.145167 0.057094 -0.133546 -0.096591 0.136261 -0.038769 -0.013178 0.103935 -0.138898 -0.232358 -0.025959 -0.009894 0.003670 0.063910 -0.037224 0.070458 0.012154 -0.319714 -0.015985 -0.136260 0.186861 0.015539 0.152229 0.107475 -0.099239 -0.035217 -0.207848 -0.068820 0.287918 -0.019446 0.097930 0.235033 -0.179690 0.206823 -0.131301 0.105085 0.029440 0.097277 -0.289620 -0.023460 -0.165251 0.006060 0.004030 0.116015 0.009967 0.068805 0.191255 0.052960 -0.105665 0.259078 0.045734 -0.013721 0.092408 -0.238871 -0.046338 -0.051893 0.137856 0.205212 -0.095808 -0.226378 0.020657 0.156745 -0.330685 0.304051 -0.061702 -0.031536 -0.059954 0.116100 0.208041 -0.084670 -0.171424 0.250925 0.205252 0.056255 -0.184630 0.230166 0.042748 -0.064266 0.249502 -0.184580 0.018207 0.019039 0.028730 0.204589 -0.134664 -0.130094 -0.142324 0.150489 0.134020 0.084785 -0.150958 0.079027 0.072841 -0.097025 -0.137348 -0.076861 0.066806 -0.112739 0.155574 0.411536 0.075963 -0.025148 -0.254813 0.048729 -0.120001 -0.162367 -0.011040 -0.040121 0.220325 -0.090246 -0.057448 -0.073309 0.255299 0.203463 -0.206114 -0.241660 0.077899 0.136812 -0.084168 0.289369 -0.212298 -0.187398 0.133721 0.095463 0.076995 -0.095961 0.202177 0.095503 -0.029914 0.100475 0.059061 0.014308 0.211311 -0.076704 0.072730 0.136312 -0.149352 -0.128667 -0.070519 -0.052174 0.001492 -0.106374 -0.037823 -0.043759 0.161673 0.030647 -0.014322 -0.298324 -0.222773 -0.182665 0.119521 0.077792 -0.152442 0.206675 -0.322973 -0.114492 0.154567 -0.241521 -0.181615 -0.020505 0.045868 0.222993 0.036754 -0.067414 0.172716 -0.084692 0.115647 0.045953 0.236103 0.207660 -0.097730 -0.129332 -0.213053 0.082929 -0.127148 0.003623 0.010890 -0.043724 0.056159 0.015088 0.058232 0.192787 0.227625 0.129298 0.274595 -0.064381 0.096485 0.198771 -0.013859 0.040095 0.125731 -0.114160 0.199148 0.030775 -0.328655 0.142418 0.035381 -0.105977 -0.112398 0.148087 0.138120 -0.126328 -0.182566 -0.149781 0.095511 0.047839 0.090071 0.028290 0.170236 -0.129248 -0.069480 0.132981 0.026477 0.163161 -0.070129 -0.104672 -0.033320 0.094275 0.010967 0.095597 0.286409 -0.037119 -0.123435 0.050818 -0.157603 -0.160949 0.104237 -0.223018 -0.018698 0.083034 0.122191 0.061492 -0.015824 0.251837 -0.018957 -0.033914 0.202292 0.231678 0.035311 -0.053923 -0.195071 -0.282501 0.264441 0.121275 0.035722 0.154409 -0.065184 0.229982 0.263318 0.146691 0.239872 0.170100 0.183765 -0.060857 0.123362 0.005503 0.096436 -0.194333 0.106768 0.069844 -0.148179 0.243841 0.196569 0.016988 0.097462 0.033111 -0.092921 -0.135114 -0.164432 0.313255 0.126070 -0.141807 0.045907 -0.018140 0.108195 0.058050 0.126949 0.306929 -0.170180 0.116009 0.126264 -0.155904 0.062451 0.289923 -0.238660
中 -0.381003 -0.015240 0.141370 -0.112594 -0.134443 0.004207 0.265206 0.095214 0.098591 0.074988 0.152265 0.081139 0.099815 0.453592 0.009298 -0.005089 -0.056437 -0.004821 -0.073539 0.175000 -0.026642 0.040234 0.090335 -0.083169 0.022588 -0.041328 0.154056 -0.018031 -0.150867 0.120043 0.156612 0.144523 -0.013792 0.015448 -0.122193 -0.102580 0.059708 -0.139757 0.002165 -0.055985 0.130861 -0.163405 0.176842 0.085230 0.145494 0.156651 0.192832 0.033916 -0.018214 -0.079112 0.241202 0.163805 0.157913 -0.234470 -0.126896 0.089007 -0.190794 0.091079 0.121621 0.008124 0.156254 -0.011318 0.037606 0.031689 0.077699 -0.086950 -0.178588 -0.009367 -0.079168 0.051446 0.039091 0.312400 0.062626 0.131091 0.045274 0.200386 0.028475 -0.062306 0.028498 -0.079889 0.009502 0.006809 0.032321 0.033144 -0.029875 -0.321000 0.096912 0.233332 0.079420 0.033754 -0.092820 -0.132662 -0.122844 0.069743 -0.011476 0.052045 -0.113453 -0.182107 0.014581 0.062288 -0.161314 -0.296928 -0.010461 0.134480 0.198802 -0.062875 -0.167475 0.051619 0.275471 -0.049314 0.174022 0.153687 -0.039627 -0.157559 0.127249 0.044193 0.152909 -0.045737 0.027782 -0.046944 -0.060104 -0.016522 0.063033 0.020688 -0.071824 -0.070300 0.081541 -0.014085 -0.002572 -0.131148 -0.227928 -0.036108 0.054675 0.042633 0.355748 -0.115119 -0.184547 -0.147203 0.067837 -0.011148 -0.077329 -0.057371 0.051632 0.040907 0.259211 0.096077 0.018754 0.146241 -0.034575 -0.000205 -0.055522 -0.017863 0.087906 -0.049138 -0.008574 -0.233534 0.001693 0.008356 -0.000269 0.107177 -0.068537 0.020460 0.019529 -0.086815 -0.025238 -0.177962 0.006485 0.079053 0.119040 -0.315441 -0.081838 0.347103 -0.170887 0.096817 -0.082631 -0.060447 0.120477 -0.081012 -0.103365 0.178673 -0.193930 0.312095 0.153701 0.193544 0.183454 -0.187654 -0.001907 0.143244 -0.114747 0.125166 0.087900 -0.158835 -0.129591 -0.001592 -0.073682 0.019394 0.130742 0.143733 0.182977 0.149380 -0.117527 0.192390 0.194555 -0.087128 0.101430 0.236327 -0.031720 0.147813 -0.030541 -0.018584 0.025111 0.004012 -0.112795 -0.011567 0.108745 0.082569 -0.072690 0.197191 -0.009350 0.158347 0.173370 -0.068124 -0.020646 0.305608 0.138421 -0.174182 0.240512 -0.001640 -0.109486 0.018749 0.016592 0.083169 0.187954 0.107502 0.118434 -0.066278 0.045782 -0.082898 -0.200907 -0.204749 0.005973 -0.053938 -0.323860 0.084221 0.183327 -0.103090 0.224560 -0.020427 0.402550 0.096656 -0.062147 0.071303 0.286567 -0.138889 -0.102306 0.056675 -0.136376 0.186859 0.124643 0.109478 0.017925 0.052646 0.078413 0.027833 0.068120 0.086026 -0.012399 -0.087640 0.033848 -0.114504 -0.253911 -0.160883 -0.186813 0.144949 -0.130408 -0.077084 -0.094835 0.224843 -0.043983 0.391435 -0.047404 -0.046507 -0.144016 -0.110871 -0.159096 -0.258735 -0.270559 0.117491 -0.023180 0.143316 -0.108611 -0.012901 0.021983 -0.261622 0.138357 0.161323 0.047712 0.003040 0.070850 -0.313321
他 -0.294159 -0.007243 0.026836 0.002049 0.043824 -0.057565 0.034216 -0.082684 -0.055792 -0.141577 0.283054 0.171863 -0.157557 0.098845 0.050941 0.083098 -0.081922 0.170492 -0.020469 0.092001 0.051574 0.208351 0.099258 -0.153120 0.084195 0.044124 -0.211427 0.025907 -0.337852 0.006973 0.168108 0.112045 0.454601 0.221455 -0.075051 -0.189254 -0.043807 -0.072645 0.215831 0.164091 0.100690 0.108105 0.035482 0.241217 0.014439 0.125948 -0.129423 -0.128512 -0.068660 -0.197246 0.190230 0.033967 0.073473 0.111932 -0.156447 0.008090 0.045569 0.064587 0.229082 -0.014369 0.199835 0.095421 -0.114440 -0.030454 0.244351 0.122863 0.008553 -0.022536 -0.157763 -0.097757 0.101441 -0.053624 -0.023846 0.075037 0.102567 0.320976 0.080220 -0.081691 0.195037 -0.087906 -0.165694 0.069702 -0.057417 0.209289 -0.036307 -0.045470 -0.213381 0.136376 0.080613 0.019680 -0.038647 -0.183450 -0.179574 0.107859 0.076506 -0.091339 -0.218909 -0.129251 -0.077438 -0.155028 -0.117374 -0.105695 0.109921 0.092793 0.059067 0.045215 -0.128439 0.196685 0.182708 0.065347 0.044752 -0.371998 0.015649 -0.203190 -0.147671 0.026665 0.080372 -0.174984 0.133033 -0.381672 -0.090507 0.336039 0.058578 -0.078571 -0.229034 -0.045584 0.012303 0.193387 -0.330139 -0.123143 -0.085062 -0.083890 0.056747 0.206657 0.160343 -0.200403 -0.119310 -0.151154 0.048740 0.029424 0.055795 -0.095626 0.125493 -0.106238 0.115253 -0.120085 0.005656 0.151704 -0.187553 -0.113334 -0.102434 -0.344674 0.158142 -0.023444 -0.193574 0.046934 -0.151016 0.236429 -0.147501 0.031200 -0.150519 -0.000133 0.113848 0.203662 -0.128428 -0.057673 0.068543 0.097962 0.029494 -0.203580 -0.057960 0.218935 -0.060778 -0.021172 -0.164774 -0.041268 -0.009472 0.061066 -0.016707 0.221956 0.088714 0.055412 0.101137 0.309045 0.178329 -0.000200 -0.181088 0.000375 -0.075472 0.169307 -0.050888 -0.294858 0.021504 -0.086515 0.028979 -0.047005 0.280665 0.236977 0.186817 0.164274 -0.088400 0.076695 0.087315 0.023580 -0.081719 0.043937 -0.156644 0.321221 -0.094656 -0.120890 0.091341 -0.094862 0.118839 0.016418 0.210521 -0.096221 0.037836 0.112190 -0.125999 0.095239 0.130164 -0.250823 0.087802 0.292977 0.045331 -0.218161 -0.141992 -0.190920 0.036676 -0.212613 -0.062512 0.039104 0.105088 0.054407 0.111833 -0.000832 -0.173698 0.032596 0.134162 -0.068931 0.205477 0.060063 0.067367 -0.123851 0.042879 -0.059399 0.261926 0.146806 0.084440 -0.191718 -0.005932 -0.016745 0.057724 -0.313342 -0.136249 0.049525 -0.071108 0.082008 0.075928 0.182007 0.258974 0.021990 -0.084825 0.066878 0.036766 0.003392 0.023384 0.030829 0.063185 -0.136758 -0.220993 -0.141559 0.013358 0.280280 0.258764 -0.020286 -0.287638 -0.044209 0.074568 0.210440 -0.009734 0.015057 0.146749 0.205227 0.043701 -0.159559 -0.264211 0.258403 -0.262055 0.102869 -0.147617 -0.020857 0.086217 0.003738 0.152711 0.074655 0.102500 0.116477 0.049322 0.076741
中国 -0.207425 0.327774 -0.004141 0.054237 0.183546 -0.071101 0.252852 0.148548 0.004740 -0.339261 0.124029 0.055898 0.182648 0.200600 -0.018882 -0.341577 -0.059810 0.161791 0.126552 -0.101893 -0.299348 0.061918 0.265160 -0.114964 -0.010518 0.209072 0.243396 0.200418 0.074542 -0.296187 -0.037530 -0.004296 0.080954 0.054606 -0.129074 0.278094 -0.074035 0.016547 -0.194666 -0.032763 -0.060175 -0.036920 0.126598 -0.038487 -0.170784 -0.022922 0.138203 0.085419 0.297934 -0.116460 0.110815 -0.117890 -0.054015 -0.248043 -0.045196 -0.265154 -0.091831 -0.126937 0.145499 0.134022 0.103055 -0.201702 0.126107 0.031847 0.078405 -0.077034 0.006170 0.118649 -0.039875 0.016707 -0.214536 0.699834 0.071309 0.206080 -0.342800 0.182405 -0.201618 -0.036153 0.082941 -0.271591 -0.170203 -0.221787 -0.205441 -0.109020 0.272741 -0.224327 0.279404 0.200286 0.051263 -0.044874 0.041685 -0.108454 -0.024072 0.133033 -0.236137 -0.348674 -0.279420 -0.313471 -0.006256 0.200648 -0.321382 -0.121889 0.139208 0.019947 -0.088519 0.230436 -0.157768 0.122890 0.040124 0.299898 0.142683 0.042980 0.165025 0.351814 0.268558 -0.195068 0.335447 -0.069085 0.223331 0.096641 0.066901 -0.080931 0.341070 0.352402 0.067855 -0.202644 0.099738 0.036243 -0.274551 -0.297927 0.025178 0.024730 -0.047535 0.328596 0.018072 -0.156138 -0.226576 0.088913 0.067345 0.087833 0.025600 0.058045 0.095280 -0.168935 0.442197 0.110973 0.091086 0.106379 0.074640 0.000541 -0.038018 0.044454 -0.078947 -0.067512 -0.275275 -0.018192 -0.049219 -0.060885 0.018829 0.204118 -0.415891 -0.119069 0.134224 -0.077638 -0.162897 -0.059284 -0.043659 -0.071610 -0.070639 -0.205852 -0.076302 0.624965 0.183301 0.001924 0.028006 -0.157076 0.130905 -0.319308 -0.410674 0.240070 -0.106059 0.175308 0.333006 0.045987 -0.143223 0.000104 -0.086002 0.080618 -0.036928 0.025316 -0.027257 -0.114831 0.046511 0.168107 0.067421 0.187139 0.296513 -0.187632 0.058026 0.072684 0.067363 0.355221 0.270014 -0.055526 -0.122644 0.138470 -0.100164 0.129341 -0.205692 0.013324 0.064647 -0.009811 0.232225 -0.242858 0.360098 0.190003 -0.396902 0.033240 -0.274473 0.163499 0.464361 -0.164755 0.262758 0.137673 0.192679 0.012094 -0.061286 -0.130877 -0.009245 -0.098988 -0.080436 -0.165270 0.342234 0.368527 0.232453 0.068896 -0.026647 0.120043 -0.255161 -0.234204 0.091213 0.178782 -0.279948 -0.055776 -0.106447 -0.103701 0.030552 -0.011335 0.304877 0.049460 -0.022815 0.333598 -0.015200 -0.182285 0.122112 0.028926 -0.102406 -0.014365 0.256166 -0.031536 0.127190 0.099660 0.123650 -0.020468 0.165891 -0.009540 0.040738 0.097285 0.224635 -0.029274 -0.363392 -0.328553 -0.059239 0.124603 -0.243472 0.061540 -0.086372 0.370758 0.263514 0.361238 -0.152223 -0.307050 -0.036612 0.062252 -0.051016 -0.072255 -0.216654 -0.239496 -0.005582 0.018928 0.070563 0.266743 -0.119835 -0.597394 -0.105861 0.262150 0.068563 0.151064 0.256567 -0.065334
也 -0.117070 -0.080418 0.193022 -0.126277 -0.085050 0.126126 0.161126 -0.040122 0.240751 -0.042193 0.044693 0.029507 0.102903 0.080885 0.176059 -0.061046 -0.024505 -0.109362 -0.064334 0.136146 -0.118812 -0.112006 0.222772 -0.206397 0.007703 0.076944 0.061832 0.034362 -0.129645 -0.023448 0.110997 0.167252 0.173725 0.139129 0.053944 -0.094409 0.030711 0.184750 0.186521 -0.079139 0.104776 0.013677 -0.021621 0.080861 0.126683 0.300152 0.132800 -0.048211 0.172158 -0.209826 0.332929 0.211264 -0.022283 0.169781 -0.042485 0.183459 0.057297 0.148327 0.173076 -0.056704 -0.106359 -0.090462 0.080323 -0.193199 0.099211 0.045011 -0.187079 0.177844 -0.302556 -0.131438 -0.010045 0.077057 0.070614 0.118271 0.042169 0.249277 0.049396 -0.173283 0.162356 -0.095823 0.109184 -0.018803 0.150988 0.058091 -0.127051 -0.272037 0.060185 0.200618 0.087721 0.243910 -0.061560 -0.046564 -0.125179 0.158809 0.149774 -0.166158 -0.041237 -0.137016 0.081995 -0.103480 0.002638 -0.196921 0.062522 0.018222 0.125249 0.029604 0.079693 0.179595 0.036290 -0.023529 0.153236 -0.037741 0.085102 0.005696 -0.059768 0.148047 0.146939 -0.117265 0.230467 -0.080274 -0.034761 0.170265 0.162462 -0.056268 -0.112644 -0.023251 0.010673 0.037653 -0.130105 -0.265765 -0.296002 0.074624 -0.039132 -0.128230 0.272670 -0.262161 -0.238764 -0.004376 0.058660 -0.034145 -0.169215 0.055591 0.003999 0.058057 0.013069 -0.051048 0.141642 0.131651 -0.183210 0.008676 -0.000631 -0.119142 0.057320 0.040398 -0.171333 -0.124647 0.120828 0.065189 -0.129078 0.328970 -0.083007 0.095969 -0.135532 -0.153611 -0.124990 -0.015276 0.183631 0.104467 0.133658 -0.146133 -0.026404 0.115928 -0.013728 -0.041310 0.003669 -0.075109 -0.146685 0.071614 -0.048184 0.017270 0.118504 0.145759 0.057286 0.303149 0.229476 0.048175 0.062498 -0.091236 -0.138615 0.020416 0.028094 -0.091110 -0.238712 0.033172 0.133254 0.017455 0.108577 0.147099 0.168902 0.178815 0.100412 0.075908 0.206874 -0.094624 0.146478 0.150020 -0.131730 0.341013 0.025046 0.001543 -0.130578 0.053280 0.073327 0.025185 0.040972 0.081741 -0.148676 0.314135 0.027378 0.124498 0.188655 -0.072027 -0.082974 0.242231 -0.038303 -0.172696 -0.007563 -0.048718 0.001794 -0.120378 0.153230 0.044756 0.125043 0.169097 0.114108 -0.002633 0.044916 0.184231 -0.038404 -0.266388 0.230807 0.174347 -0.030804 -0.055992 0.153185 -0.007009 0.180512 -0.281258 0.244572 -0.038253 0.041047 0.119656 0.174038 -0.119580 0.047003 0.118110 0.023324 0.156289 0.024261 0.074914 0.010022 -0.122603 0.127232 0.109751 -0.120177 -0.060303 0.130281 0.139539 -0.062000 0.069833 -0.165334 -0.109671 0.036548 0.142529 0.111468 -0.193341 -0.005646 0.246956 -0.251402 0.235003 0.092491 -0.182255 -0.132927 0.122663 0.163762 -0.223161 -0.055196 0.118879 -0.025539 0.224287 -0.211995 0.039074 0.099434 -0.120287 0.188367 0.419106 0.039989 0.128954 0.215264 -0.112156
1 -0.146492 0.221852 0.196298 -0.264047 -0.079379 0.413736 0.157245 0.035550 -0.239155 0.280646 0.199882 0.029042 0.272292 0.342809 0.116543 -0.089220 0.116332 -0.025522 0.051248 0.066514 0.079760 0.269902 0.241742 -0.174940 0.057284 0.134397 0.233724 0.027915 0.017202 -0.025791 0.131645 0.324980 -0.172081 -0.156787 -0.180432 0.167178 -0.008781 0.112268 -0.108464 -0.355737 0.113741 -0.076938 0.188452 0.066902 0.120797 -0.183175 0.140446 0.022401 0.050202 0.086172 -0.135906 0.243611 0.092712 -0.110662 0.037858 -0.019407 -0.194757 0.189522 0.067925 0.106731 -0.011257 -0.134512 -0.116594 -0.142778 0.062557 0.021794 0.163979 -0.090734 -0.286403 -0.093432 0.276878 0.265249 0.281488 0.293209 0.052324 0.321152 0.000472 0.140440 -0.072014 -0.134711 0.232224 0.213960 0.233123 0.040118 -0.129840 -0.070469 0.170800 0.167082 -0.204489 0.070740 -0.223113 -0.036343 -0.223773 0.303853 0.013858 0.210971 -0.222024 -0.259360 -0.140870 0.062234 -0.330085 0.067031 0.029958 0.288326 0.176338 -0.185949 -0.098561 0.232910 0.080280 -0.091642 0.058003 0.055719 0.000753 0.280291 0.184941 -0.175970 -0.068309 -0.242765 0.239608 -0.145098 0.040014 -0.296781 -0.141954 -0.033210 0.048530 -0.143571 0.191257 0.091959 -0.055783 0.056873 0.070242 -0.028192 -0.003615 0.311749 0.063236 -0.097882 -0.566852 0.012502 -0.063046 0.009757 -0.122810 0.044135 0.009518 -0.368916 0.210227 0.058751 0.008818 0.067156 0.224677 -0.083835 -0.089419 -0.000876 0.191575 -0.147436 -0.471280 -0.406972 -0.113355 -0.020407 0.108374 0.140807 -0.012925 0.040935 -0.088573 0.157075 -0.180804 -0.039281 -0.043096 0.155365 0.133673 -0.118251 -0.124937 -0.311357 -0.010465 -0.230654 0.050512 0.034941 0.085926 -0.250169 0.071766 0.255284 -0.104343 0.235124 -0.053628 0.003937 -0.070105 -0.118701 -0.039430 0.034760 -0.074394 -0.048135 0.174065 0.001378 -0.206973 -0.221002 -0.116554 0.117997 0.014726 0.147417 -0.182422 0.357998 -0.156014 0.040111 0.231973 -0.197314 -0.018153 0.139153 0.023747 0.225447 -0.373966 0.175557 -0.103573 0.137041 0.024703 0.180061 0.144645 -0.070524 -0.149764 -0.088573 0.003669 0.053582 -0.032787 -0.151664 0.274117 0.167828 0.068253 0.275397 -0.143989 -0.008904 0.079648 -0.343420 -0.037312 -0.034689 -0.057243 0.082184 0.081481 -0.005077 0.078668 0.014652 0.010428 -0.049786 -0.015665 -0.021566 -0.242797 -0.077312 0.123957 0.123387 0.320488 -0.337782 0.374779 0.218422 0.166426 0.153292 0.175795 -0.163491 0.000736 -0.412691 -0.019046 0.224282 0.384430 0.068536 0.153548 -0.121446 0.201074 0.116505 0.119227 0.231107 -0.258634 0.248850 -0.159688 0.035295 -0.289231 -0.048687 -0.181278 -0.027616 -0.029749 0.004384 0.033917 0.171442 0.033139 0.048853 -0.023026 0.129099 0.129579 -0.194671 -0.027191 -0.132180 0.044329 0.049210 0.321675 -0.105223 0.376251 0.190847 0.385880 -0.024389 0.002080 0.245968 0.219204 -0.084462 0.108727 -0.180854
月 -0.043225 -0.049739 0.242823 -0.033409 0.202472 0.395692 0.085187 -0.239525 -0.228984 0.005977 0.105264 0.180500 -0.202364 0.220859 0.059937 -0.039756 -0.013227 -0.015915 0.011917 0.061973 0.000059 0.278499 0.113798 -0.100082 0.280251 0.231952 -0.056362 0.301566 -0.036455 0.113468 0.187244 0.110172 0.084589 -0.061545 -0.180884 0.096979 0.264217 -0.036497 -0.136130 -0.280356 0.118358 -0.069807 0.307623 0.062072 0.064793 -0.087394 0.075896 -0.084132 0.321525 0.008338 -0.072721 0.334461 0.176148 -0.278673 0.122770 0.140356 0.055270 0.145671 0.257480 0.139419 0.035729 -0.092471 -0.250625 -0.113554 -0.042863 0.044027 -0.124538 -0.082090 -0.018975 -0.039615 0.105003 0.169682 0.173216 0.247862 -0.215942 0.153942 0.028866 0.183174 -0.166299 -0.111355 -0.045558 0.020729 -0.192720 0.112586 0.111146 -0.243490 0.264718 -0.113110 -0.015017 -0.359882 -0.247539 0.128237 -0.011162 0.308868 0.004811 -0.015397 -0.164591 -0.452166 -0.257556 -0.133521 -0.162731 -0.038098 -0.125500 -0.111444 -0.154801 0.015696 0.171476 0.314232 0.193995 0.132877 -0.016399 -0.013541 -0.150158 0.279586 0.133220 -0.245843 -0.075947 -0.307217 0.263257 0.047566 0.142151 0.098850 0.206606 0.107550 -0.026891 0.023991 0.320165 -0.098997 -0.117156 0.183654 -0.114700 -0.085503 0.143170 0.155665 0.099309 0.035114 -0.289364 0.144865 -0.059683 0.099600 -0.179542 -0.052270 -0.169402 -0.129264 0.442190 0.189695 0.038061 -0.040608 0.370653 0.267751 -0.141625 -0.120433 0.037938 -0.023767 -0.361301 -0.225185 -0.145569 -0.014611 -0.153089 0.006927 -0.135226 -0.076372 -0.213967 0.146165 -0.381357 -0.320369 0.233798 0.132140 0.141026 -0.198507 0.124789 0.096881 -0.020578 -0.048031 -0.082091 0.070301 -0.063360 -0.269953 -0.076414 0.397107 -0.069934 0.218583 0.365458 -0.091534 -0.192238 -0.413465 -0.263134 -0.066260 -0.032697 0.119354 -0.394901 -0.027072 -0.224652 0.138271 0.018626 0.103494 0.291604 -0.043690 -0.255397 0.418439 -0.019557 -0.072090 0.373229 0.005319 0.148779 0.302285 -0.161063 0.399985 -0.419944 0.144831 -0.273538 0.288252 0.134262 0.093224 0.028775 -0.162079 -0.150869 -0.101612 -0.047861 -0.083644 -0.051139 -0.280798 0.140971 0.134138 -0.005167 0.115641 -0.268537 -0.045631 0.089293 -0.342760 0.038077 0.015727 0.106471 0.107651 0.036052 -0.010106 -0.021415 -0.049213 0.251395 -0.284302 -0.075721 0.076682 -0.225299 -0.135309 -0.000332 0.051107 0.317855 0.093723 0.422999 0.122848 -0.129936 0.164364 -0.112205 -0.061194 -0.023226 -0.272130 -0.077292 0.213956 0.438559 -0.023462 0.254804 -0.135491 0.032100 -0.122667 -0.066445 0.100687 -0.134032 0.311177 0.111856 -0.009245 -0.302401 0.024874 -0.196527 -0.123515 0.062534 -0.124811 -0.072783 0.088447 0.307706 -0.028574 -0.013392 -0.335215 -0.272365 0.157474 0.304007 -0.095357 0.075281 0.117237 0.094379 0.121401 0.195275 0.123705 0.308091 0.089429 -0.217535 0.075735 0.456376 0.002848 0.121093 -0.081388
